svm_type c_svc
kernel_type rbf
gamma 8
nr_class 10
total_sv 459
rho -2.08673 -0.811363 -0.594573 -0.644144 -6.21333 -0.46548 -0.103378 -0.419733 0.46701 -5.53012 0.290897 -12.1978 -0.753521 1.3273 1.70764 0.725277 0.880794 -4.02502 0.065462 -0.476871 0.0203948 0.838362 0.0890918 0.773147 -0.276509 -0.465612 -0.0720633 0.511066 0.0629926 0.770908 -18.9476 0.180232 4.95407 0.361428 0.881165 -1.9263 0.380921 -0.488592 0.870755 0.973781 3.87228 0.877522 1.97008 0.542091 1.01283
distance 12.3202 9.37367 18.3596 9.48425 85.0326 25.3473 23.6027 23.925 12.8751 81.2518 8.10333 97.4577 14.7259 15.0516 70.1556 89.2894 26.6979 97.2983 4.2994 3.66709 3.99466 7.69837 27.7382 4.6272 3.67495 2.48534 14.4477 11.4816 10.5532 15.8498 155.243 15.614 62.3613 13.7195 27.2446 46.3404 61.7211 83.7118 13.9112 53.2665 56.2242 30.4537 69.0585 35.4873 51.6362
label 1 2 3 4 5 6 7 8 9 10
nr_sv 53 34 38 38 34 44 50 45 58 65
SV
0 0 0 0 487.4644485217931 45.11077417940866 0 0 0 1:-0.936455 2:-0.8125 3:-0.799595 4:-0.93694 5:-0.912247 6:-0.927896 7:-0.936733 8:-0.938663 9:-0.9606 10:-0.96787 11:-0.961758 12:-0.965209 13:-0.960993 14:-0.957503 15:-0.955529 16:-0.953145 17:-0.951034 18:-0.950327 19:-0.948548 20:-0.94719 21:-0.946679 22:-0.946003 23:-0.945053 24:-0.944405 25:-0.943886 26:-0.943482 27:-0.942762 28:-0.942118 29:-0.942116 30:-0.941577 31:-0.941071 32:-0.940595 33:-0.940958 34:-0.940512 35:-0.942393 36:-0.942096 37:-0.941986 38:-0.942319 39:-0.942228 40:-0.941927 41:-0.941519 42:-0.941894 43:-0.942431 44:-0.942091 45:-0.941747 46:-0.941858 47:-0.941499 48:-0.941451 49:-0.94171 50:-0.941757 51:-0.942013 52:-0.942164 53:-0.94212 54:-0.941997 55:-0.941733 56:-0.941824 57:-0.941533 58:-0.941927 59:-0.941649 60:-0.941566 61:-0.941311 62:-0.941078 63:-0.941172 64:-0.941151 65:-0.941121 66:-0.941115 67:-0.941333 68:-0.941127 69:-0.941106 70:-0.941682 71:-0.941478 72:-0.94154 73:-0.941332 74:-0.941307 75:-0.941113 76:-0.941167 77:-0.94097 78:-0.941092 79:-0.941029 80:-0.941168 81:-0.940967 82:-0.940937 83:-0.940778 84:-0.94081 85:-0.940652 86:-0.940494 87:-0.940345 88:-0.94038 89:-0.940324 90:-0.940404 91:-0.940482 92:-0.941181 93:-0.941073 94:-0.941125 95:-0.941155 96:-0.941077 97:-0.941209 98:-0.941321 99:-0.94136 100:-0.941381 101:-0.941352 102:-0.941208 103:-0.941552 104:-0.941811 
0 0 0 9.972046259026101 2048 0 45.63222334672771 45.73891113866183 13.78786283415141 1:-0.934305 2:-0.821615 3:-0.803436 4:-0.934732 5:-0.905248 6:-0.928981 7:-0.92891 8:-0.937716 9:-0.95042 10:-0.959861 11:-0.962112 12:-0.96186 13:-0.958302 14:-0.954866 15:-0.952518 16:-0.950979 17:-0.948863 18:-0.947164 19:-0.946059 20:-0.945452 21:-0.944228 22:-0.943851 23:-0.943123 24:-0.942204 25:-0.941933 26:-0.94121 27:-0.940495 28:-0.940335 29:-0.939766 30:-0.939235 31:-0.939166 32:-0.938681 33:-0.938252 34:-0.93821 35:-0.939795 36:-0.93937 37:-0.938948 38:-0.938684 39:-0.938823 40:-0.938407 41:-0.938973 42:-0.939325 43:-0.939492 44:-0.939572 45:-0.9398 46:-0.939932 47:-0.939774 48:-0.939716 49:-0.939404 50:-0.939088 51:-0.939278 52:-0.93896 53:-0.938671 54:-0.938628 55:-0.938452 56:-0.938214 57:-0.937949 58:-0.93829 59:-0.93804 60:-0.938025 61:-0.938698 62:-0.938631 63:-0.938421 64:-0.938791 65:-0.938903 66:-0.938882 67:-0.938678 68:-0.93848 69:-0.938467 70:-0.93872 71:-0.9387 72:-0.93851 73:-0.9385 74:-0.938321 75:-0.938301 76:-0.93811 77:-0.938235 78:-0.938055 79:-0.938487 80:-0.938518 81:-0.938934 82:-0.939385 83:-0.939234 84:-0.939423 85:-0.939333 86:-0.939692 87:-0.939702 88:-0.93985 89:-0.939689 90:-0.939733 91:-0.939575 92:-0.939412 93:-0.939388 94:-0.939238 95:-0.93909 96:-0.93907 97:-0.938927 98:-0.938828 99:-0.938925 100:-0.939008 101:-0.93891 102:-0.938815 103:-0.939195 104:-0.939387 
0 0 0 0 274.2564232871634 0 16.83276395839631 0 0 1:-0.905274 2:-0.808594 3:-0.795744 4:-0.934357 5:-0.904554 6:-0.924646 7:-0.929716 8:-0.931574 9:-0.960581 10:-0.964187 11:-0.960053 12:-0.955515 13:-0.952609 14:-0.949683 15:-0.94858 16:-0.946933 17:-0.945072 18:-0.943599 19:-0.94295 20:-0.942452 21:-0.943473 22:-0.942452 23:-0.941544 24:-0.94067 25:-0.941293 26:-0.94057 27:-0.939854 28:-0.939216 29:-0.938665 30:-0.94105 31:-0.940458 32:-0.940067 33:-0.939566 34:-0.939378 35:-0.938913 36:-0.938495 37:-0.938138 38:-0.938367 39:-0.938208 40:-0.938285 41:-0.939896 42:-0.939893 43:-0.939487 44:-0.939102 45:-0.939098 46:-0.939044 47:-0.938683 48:-0.93875 49:-0.939083 50:-0.939252 51:-0.938933 52:-0.939228 53:-0.939051 54:-0.938973 55:-0.939242 56:-0.939577 57:-0.939491 58:-0.939328 59:-0.939047 60:-0.939002 61:-0.939147 62:-0.939352 63:-0.939118 64:-0.939084 65:-0.938854 66:-0.939203 67:-0.939731 68:-0.939505 69:-0.93965 70:-0.939662 71:-0.939446 72:-0.939405 73:-0.939187 74:-0.938988 75:-0.939145 76:-0.938978 77:-0.938835 78:-0.938819 79:-0.93862 80:-0.938452 81:-0.938249 82:-0.938108 83:-0.938191 84:-0.938461 85:-0.938297 86:-0.938133 87:-0.93798 88:-0.93796 89:-0.937813 90:-0.937662 91:-0.938307 92:-0.938303 93:-0.938155 94:-0.93831 95:-0.938362 96:-0.938463 97:-0.938902 98:-0.938752 99:-0.938777 100:-0.938807 101:-0.938771 102:-0.939077 103:-0.938976 104:-0.939273 
0 0 0 0 717.9958529166172 34.62536593093856 0 0 0 1:-0.897747 2:-0.759115 3:-0.769468 4:-0.932454 5:-0.901514 6:-0.932613 7:-0.94887 8:-0.949263 9:-0.951339 10:-0.95806 11:-0.964924 12:-0.959689 13:-0.956222 14:-0.953538 15:-0.951405 16:-0.949657 17:-0.947361 18:-0.945842 19:-0.944267 20:-0.943104 21:-0.94226 22:-0.941229 23:-0.940949 24:-0.940188 25:-0.939286 26:-0.938942 27:-0.93817 28:-0.937865 29:-0.937436 30:-0.936858 31:-0.936656 32:-0.936296 33:-0.938223 34:-0.937705 35:-0.9372 36:-0.936888 37:-0.936434 38:-0.936119 39:-0.93594 40:-0.937936 41:-0.938027 42:-0.937704 43:-0.937509 44:-0.937101 45:-0.937584 46:-0.937527 47:-0.937402 48:-0.937455 49:-0.937317 50:-0.937302 51:-0.937233 52:-0.937153 53:-0.936922 54:-0.936611 55:-0.936691 56:-0.936418 57:-0.936205 58:-0.935928 59:-0.936211 60:-0.937398 61:-0.937438 62:-0.937409 63:-0.937469 64:-0.937823 65:-0.937565 66:-0.937466 67:-0.937583 68:-0.937766 69:-0.937602 70:-0.937442 71:-0.93754 72:-0.937596 73:-0.937495 74:-0.937344 75:-0.937125 76:-0.937463 77:-0.937677 78:-0.937625 79:-0.937616 80:-0.937424 81:-0.937337 82:-0.937338 83:-0.937502 84:-0.93736 85:-0.93723 86:-0.937324 87:-0.937348 88:-0.937847 89:-0.937712 90:-0.937631 91:-0.937614 92:-0.937533 93:-0.937413 94:-0.937245 95:-0.937179 96:-0.937306 97:-0.937267 98:-0.937221 99:-0.93725 100:-0.93736 101:-0.937973 102:-0.937992 103:-0.937872 104:-0.938242 
0 0 0 0 168.1088886169685 94.03749186095376 0 0 0 1:-0.909145 2:-0.759115 3:-0.743533 4:-0.928586 5:-0.901115 6:-0.924903 7:-0.93754 8:-0.945234 9:-0.955177 10:-0.963989 11:-0.958559 12:-0.95379 13:-0.950707 14:-0.947174 15:-0.944336 16:-0.941998 17:-0.940965 18:-0.940053 19:-0.938197 20:-0.936812 21:-0.936966 22:-0.935973 23:-0.934994 24:-0.934051 25:-0.933204 26:-0.933024 27:-0.932297 28:-0.932134 29:-0.93202 30:-0.931462 31:-0.93329 32:-0.933202 33:-0.93267 34:-0.932143 35:-0.932236 36:-0.932206 37:-0.932095 38:-0.934537 39:-0.93422 40:-0.933693 41:-0.93322 42:-0.933078 43:-0.93311 44:-0.932978 45:-0.933258 46:-0.933955 47:-0.933527 48:-0.933155 49:-0.933056 50:-0.933522 51:-0.934142 52:-0.933894 53:-0.933629 54:-0.933516 55:-0.933211 56:-0.933354 57:-0.933124 58:-0.933027 59:-0.932718 60:-0.933476 61:-0.933379 62:-0.933297 63:-0.933512 64:-0.933598 65:-0.933706 66:-0.933709 67:-0.933782 68:-0.933877 69:-0.933805 70:-0.933558 71:-0.933751 72:-0.933509 73:-0.933263 74:-0.933038 75:-0.93281 76:-0.932578 77:-0.932717 78:-0.932497 79:-0.932276 80:-0.932242 81:-0.932017 82:-0.931818 83:-0.931919 84:-0.932339 85:-0.932828 86:-0.932635 87:-0.932671 88:-0.932781 89:-0.93305 90:-0.933689 91:-0.934103 92:-0.934027 93:-0.933873 94:-0.933741 95:-0.933559 96:-0.933383 97:-0.93358 98:-0.933914 99:-0.934105 100:-0.934481 101:-0.934404 102:-0.93445 103:-0.934823 104:-0.935164 
0 0 0 11.45123189011707 85.92613280420031 0 0 0 0 1:-0.928176 2:-0.77474 3:-0.753541 4:-0.928384 5:-0.896516 6:-0.926622 7:-0.935457 8:-0.942564 9:-0.954229 10:-0.958873 11:-0.958042 12:-0.952773 13:-0.949796 14:-0.946835 15:-0.944043 16:-0.942515 17:-0.940384 18:-0.939022 19:-0.937552 20:-0.936217 21:-0.935312 22:-0.934321 23:-0.93417 24:-0.933276 25:-0.932914 26:-0.932646 27:-0.931942 28:-0.931316 29:-0.931689 30:-0.931149 31:-0.932028 32:-0.932557 33:-0.932053 34:-0.931705 35:-0.931239 36:-0.931941 37:-0.931492 38:-0.932855 39:-0.932945 40:-0.932488 41:-0.932425 42:-0.932829 43:-0.932704 44:-0.932677 45:-0.932309 46:-0.932177 47:-0.931793 48:-0.932084 49:-0.932012 50:-0.932111 51:-0.932074 52:-0.932198 53:-0.931877 54:-0.931756 55:-0.931489 56:-0.931488 57:-0.93119 58:-0.931132 59:-0.931638 60:-0.931857 61:-0.931791 62:-0.931885 63:-0.931962 64:-0.932094 65:-0.931927 66:-0.931884 67:-0.931835 68:-0.93224 69:-0.932196 70:-0.931976 71:-0.932059 72:-0.931844 73:-0.932885 74:-0.932998 75:-0.932935 76:-0.932703 77:-0.932564 78:-0.932856 79:-0.932744 80:-0.932824 81:-0.932742 82:-0.932616 83:-0.932418 84:-0.93295 85:-0.932902 86:-0.93271 87:-0.933001 88:-0.933677 89:-0.933803 90:-0.933702 91:-0.934105 92:-0.934095 93:-0.933908 94:-0.934078 95:-0.934021 96:-0.933909 97:-0.934 98:-0.933942 99:-0.933939 100:-0.933912 101:-0.933827 102:-0.93379 103:-0.933804 104:-0.934597 
0 0 0 0 0 20.57367040087198 0 0 0 1:-0.916779 2:-0.739583 3:-0.72696 4:-0.922366 5:-0.896292 6:-0.910817 7:-0.912095 8:-0.945791 9:-0.948793 10:-0.945084 11:-0.942764 12:-0.940013 13:-0.936678 14:-0.93533 15:-0.934436 16:-0.932894 17:-0.93093 18:-0.929401 19:-0.92805 20:-0.926858 21:-0.926493 22:-0.926225 23:-0.925396 24:-0.925162 25:-0.924728 26:-0.924091 27:-0.923451 28:-0.92346 29:-0.92529 30:-0.924723 31:-0.924188 32:-0.923848 33:-0.923401 34:-0.923335 35:-0.924431 36:-0.924438 37:-0.924 38:-0.925182 39:-0.924746 40:-0.924539 41:-0.92425 42:-0.924162 43:-0.92378 44:-0.923806 45:-0.923762 46:-0.923603 47:-0.923248 48:-0.923154 49:-0.922865 50:-0.92316 51:-0.924685 52:-0.924681 53:-0.924502 54:-0.92466 55:-0.924658 56:-0.924388 57:-0.924304 58:-0.924069 59:-0.923795 60:-0.923554 61:-0.923774 62:-0.924738 63:-0.924697 64:-0.924752 65:-0.925025 66:-0.924793 67:-0.925102 68:-0.926281 69:-0.926465 70:-0.927188 71:-0.927429 72:-0.927178 73:-0.926989 74:-0.92718 75:-0.927387 76:-0.927292 77:-0.927043 78:-0.927252 79:-0.927008 80:-0.926862 81:-0.926614 82:-0.926541 83:-0.926475 84:-0.926696 85:-0.926692 86:-0.927249 87:-0.927124 88:-0.927111 89:-0.927054 90:-0.927004 91:-0.926868 92:-0.926834 93:-0.927481 94:-0.92764 95:-0.92772 96:-0.927823 97:-0.928192 98:-0.928169 99:-0.92833 100:-0.928604 101:-0.928957 102:-0.929034 103:-0.928839 104:-0.929314 
0 0 0 0 0 0 28.32093309509789 0 0 1:-0.895167 2:-0.679688 3:-0.698242 4:-0.920223 5:-0.892901 6:-0.907501 7:-0.926104 8:-0.946521 9:-0.943219 10:-0.936823 11:-0.933524 12:-0.930655 13:-0.928542 14:-0.926677 15:-0.925231 16:-0.924415 17:-0.923195 18:-0.922321 19:-0.921196 20:-0.920519 21:-0.920194 22:-0.921712 23:-0.921197 24:-0.920889 25:-0.920397 26:-0.920232 27:-0.91982 28:-0.921131 29:-0.92113 30:-0.920777 31:-0.92044 32:-0.920921 33:-0.921789 34:-0.921654 35:-0.921326 36:-0.921043 37:-0.920749 38:-0.921938 39:-0.921889 40:-0.921542 41:-0.921743 42:-0.922049 43:-0.921756 44:-0.922931 45:-0.923101 46:-0.923372 47:-0.922946 48:-0.923495 49:-0.923241 50:-0.923371 51:-0.923189 52:-0.922814 53:-0.923657 54:-0.923492 55:-0.923275 56:-0.923191 57:-0.922977 58:-0.923321 59:-0.923294 60:-0.923998 61:-0.924127 62:-0.923909 63:-0.923716 64:-0.924209 65:-0.924113 66:-0.923844 67:-0.924069 68:-0.923877 69:-0.923625 70:-0.924598 71:-0.926069 72:-0.926539 73:-0.9274 74:-0.927366 75:-0.927074 76:-0.926938 77:-0.926649 78:-0.926683 79:-0.926596 80:-0.926709 81:-0.926421 82:-0.926731 83:-0.926737 84:-0.926807 85:-0.926936 86:-0.927116 87:-0.927254 88:-0.927517 89:-0.927835 90:-0.927693 91:-0.927617 92:-0.928239 93:-0.928182 94:-0.928119 95:-0.928188 96:-0.928008 97:-0.927927 98:-0.927893 99:-0.927904 100:-0.927775 101:-0.927671 102:-0.927957 103:-0.928085 104:-0.928123 
0 0 8.750167553405454 1.068988214902525 0 0 0 0 0 1:-0.904091 2:-0.6875 3:-0.677988 4:-0.897989 5:-0.910117 6:-0.928738 7:-0.915523 8:-0.907136 9:-0.902246 10:-0.900806 11:-0.898939 12:-0.896879 13:-0.896726 14:-0.895202 15:-0.895143 16:-0.895195 17:-0.894681 18:-0.893815 19:-0.895708 20:-0.898623 21:-0.897898 22:-0.899958 23:-0.907919 24:-0.907751 25:-0.906518 26:-0.905484 27:-0.905069 28:-0.904629 29:-0.904446 30:-0.907868 31:-0.907385 32:-0.907302 33:-0.906496 34:-0.905704 35:-0.905347 36:-0.904895 37:-0.905043 38:-0.904787 39:-0.904687 40:-0.904023 41:-0.903759 42:-0.90336 43:-0.902939 44:-0.902715 45:-0.902863 46:-0.903814 47:-0.904727 48:-0.904499 49:-0.904102 50:-0.904097 51:-0.903837 52:-0.904545 53:-0.905329 54:-0.905379 55:-0.905649 56:-0.905926 57:-0.905498 58:-0.905285 59:-0.905388 60:-0.905545 61:-0.905142 62:-0.904763 63:-0.906052 64:-0.906522 65:-0.906989 66:-0.907296 67:-0.907104 68:-0.906737 69:-0.906562 70:-0.906544 71:-0.906933 72:-0.906653 73:-0.90647 74:-0.906145 75:-0.905979 76:-0.905646 77:-0.905481 78:-0.905169 79:-0.905165 80:-0.905498 81:-0.905983 82:-0.906499 83:-0.906976 84:-0.906673 85:-0.906529 86:-0.906545 87:-0.906381 88:-0.906157 89:-0.905897 90:-0.905631 91:-0.906141 92:-0.905925 93:-0.905673 94:-0.905556 95:-0.906402 96:-0.906401 97:-0.906489 98:-0.90629 99:-0.906043 100:-0.905922 101:-0.905799 102:-0.905682 103:-0.905452 104:-0.905818 
0 0.01084950522848366 0 0 0 0.1530301728645435 2.270505848983773 0.1007975207369631 0 1:-0.703134 2:-0.605469 3:-0.558314 4:-0.743599 5:-0.759358 6:-0.750855 7:-0.741827 8:-0.737509 9:-0.735089 10:-0.734524 11:-0.758914 12:-0.782139 13:-0.780798 14:-0.777188 15:-0.773992 16:-0.774508 17:-0.77105 18:-0.775442 19:-0.773359 20:-0.771273 21:-0.769325 22:-0.768578 23:-0.768223 24:-0.769802 25:-0.768893 26:-0.768951 27:-0.768272 28:-0.76686 29:-0.766108 30:-0.765726 31:-0.764412 32:-0.763188 33:-0.764526 34:-0.76486 35:-0.764182 36:-0.763218 37:-0.762434 38:-0.761955 39:-0.761422 40:-0.760761 41:-0.760657 42:-0.760519 43:-0.760339 44:-0.759898 45:-0.759224 46:-0.758897 47:-0.758847 48:-0.758667 49:-0.758297 50:-0.758429 51:-0.758939 52:-0.758451 53:-0.758023 54:-0.757476 55:-0.757438 56:-0.757592 57:-0.75746 58:-0.756967 59:-0.756678 60:-0.756349 61:-0.755899 62:-0.75628 63:-0.756433 64:-0.756039 65:-0.75569 66:-0.755494 67:-0.755373 68:-0.755029 69:-0.75478 70:-0.754663 71:-0.754455 72:-0.754171 73:-0.754082 74:-0.754014 75:-0.753847 76:-0.754068 77:-0.753757 78:-0.753772 79:-0.753582 80:-0.753359 81:-0.753218 82:-0.752925 83:-0.753157 84:-0.752877 85:-0.752729 86:-0.752432 87:-0.75249 88:-0.752228 89:-0.752084 90:-0.751885 91:-0.752045 92:-0.752014 93:-0.751709 94:-0.751465 95:-0.751118 96:-0.751008 97:-0.750797 98:-0.750719 99:-0.750621 100:-0.750493 101:-0.750285 102:-0.75018 103:-0.750103 104:-0.75019 
0 0.03355959295263983 0 0.06584690510230191 0 0.08447038397329129 0 0 0 1:-0.614644 2:-0.549479 3:-0.500843 4:-0.681497 5:-0.685019 6:-0.685255 7:-0.672406 8:-0.6699 9:-0.681238 10:-0.721918 11:-0.718846 12:-0.716252 13:-0.715196 14:-0.713064 15:-0.711539 16:-0.711205 17:-0.710368 18:-0.709422 19:-0.706625 20:-0.711667 21:-0.708856 22:-0.70982 23:-0.711046 24:-0.718656 25:-0.719926 26:-0.719004 27:-0.717776 28:-0.716059 29:-0.715079 30:-0.713739 31:-0.712347 32:-0.710921 33:-0.709796 34:-0.708349 35:-0.708424 36:-0.708058 37:-0.706929 38:-0.706 39:-0.705184 40:-0.704219 41:-0.703955 42:-0.702974 43:-0.702953 44:-0.7026 45:-0.701659 46:-0.701288 47:-0.700526 48:-0.700268 49:-0.699852 50:-0.700053 51:-0.699563 52:-0.698795 53:-0.6981 54:-0.698582 55:-0.6984 56:-0.69786 57:-0.698504 58:-0.697667 59:-0.697728 60:-0.697554 61:-0.696976 62:-0.696563 63:-0.696327 64:-0.695837 65:-0.695504 66:-0.695197 67:-0.694915 68:-0.694622 69:-0.694358 70:-0.69416 71:-0.693724 72:-0.693466 73:-0.693083 74:-0.693071 75:-0.692732 76:-0.692528 77:-0.692119 78:-0.691999 79:-0.6916 80:-0.691612 81:-0.691163 82:-0.690933 83:-0.690839 84:-0.690598 85:-0.690487 86:-0.690308 87:-0.690109 88:-0.689935 89:-0.689806 90:-0.689668 91:-0.689509 92:-0.689335 93:-0.689096 94:-0.688917 95:-0.688831 96:-0.688694 97:-0.688431 98:-0.688437 99:-0.688236 100:-0.68793 101:-0.687752 102:-0.68752 103:-0.687457 104:-0.687923 
0 0.07290193551155817 0.1198400657482898 0.1325137520204333 0 0.2020541069081539 0.4344046405402039 0 1.457138440720775 1:-0.730875 2:-0.523438 3:-0.442182 4:-0.665984 5:-0.702219 6:-0.713654 7:-0.68468 8:-0.675489 9:-0.679525 10:-0.697738 11:-0.69165 12:-0.685359 13:-0.682432 14:-0.695252 15:-0.692499 16:-0.69173 17:-0.693644 18:-0.690922 19:-0.68887 20:-0.691104 21:-0.696946 22:-0.696056 23:-0.697387 24:-0.704483 25:-0.702268 26:-0.703995 27:-0.703843 28:-0.703157 29:-0.702274 30:-0.700161 31:-0.69817 32:-0.697242 33:-0.697186 34:-0.695434 35:-0.693967 36:-0.693989 37:-0.693364 38:-0.692457 39:-0.691998 40:-0.690884 41:-0.689608 42:-0.689078 43:-0.688858 44:-0.688188 45:-0.687498 46:-0.686582 47:-0.686449 48:-0.685795 49:-0.685148 50:-0.685212 51:-0.684828 52:-0.68395 53:-0.682954 54:-0.683728 55:-0.683061 56:-0.682605 57:-0.681993 58:-0.682462 59:-0.681785 60:-0.682671 61:-0.681835 62:-0.681858 63:-0.68202 64:-0.681468 65:-0.680871 66:-0.68034 67:-0.680412 68:-0.680865 69:-0.680258 70:-0.679766 71:-0.679816 72:-0.679398 73:-0.678742 74:-0.678769 75:-0.678661 76:-0.678182 77:-0.677955 78:-0.677954 79:-0.677995 80:-0.6779 81:-0.677539 82:-0.677447 83:-0.677375 84:-0.676991 85:-0.67685 86:-0.676879 87:-0.676543 88:-0.676316 89:-0.676218 90:-0.676173 91:-0.675859 92:-0.675765 93:-0.675687 94:-0.675381 95:-0.675279 96:-0.675102 97:-0.67473 98:-0.674849 99:-0.674719 100:-0.674645 101:-0.674462 102:-0.674291 103:-0.674019 104:-0.673954 
0 0.1044552612029454 0.2285475786600289 0.1987845513274645 0 0.2992887136971263 0.4954858782094856 0.3002644668527275 0.5370789883000059 1:-0.530993 2:-0.365885 3:-0.413432 4:-0.628987 5:-0.714501 6:-0.679358 7:-0.649952 8:-0.63861 9:-0.664336 10:-0.657786 11:-0.657828 12:-0.653578 13:-0.663909 14:-0.659785 15:-0.660898 16:-0.661205 17:-0.656886 18:-0.654616 19:-0.650706 20:-0.649385 21:-0.65055 22:-0.64934 23:-0.649921 24:-0.651269 25:-0.650895 26:-0.652287 27:-0.652545 28:-0.653424 29:-0.652441 30:-0.653604 31:-0.654124 32:-0.656004 33:-0.654783 34:-0.654107 35:-0.654227 36:-0.653088 37:-0.652575 38:-0.652976 39:-0.652875 40:-0.652545 41:-0.653178 42:-0.652313 43:-0.651796 44:-0.650967 45:-0.650118 46:-0.650025 47:-0.649382 48:-0.649079 49:-0.648881 50:-0.648417 51:-0.648929 52:-0.648578 53:-0.64834 54:-0.647839 55:-0.647609 56:-0.647366 57:-0.64681 58:-0.64638 59:-0.645766 60:-0.64547 61:-0.645393 62:-0.645687 63:-0.645345 64:-0.644868 65:-0.645199 66:-0.644743 67:-0.644347 68:-0.644242 69:-0.643879 70:-0.643447 71:-0.643217 72:-0.642923 73:-0.64288 74:-0.642622 75:-0.642277 76:-0.642101 77:-0.641749 78:-0.64155 79:-0.641202 80:-0.64126 81:-0.640853 82:-0.640563 83:-0.640502 84:-0.640142 85:-0.640058 86:-0.639792 87:-0.639566 88:-0.639311 89:-0.639055 90:-0.638859 91:-0.638704 92:-0.638549 93:-0.638236 94:-0.638084 95:-0.637927 96:-0.637678 97:-0.637632 98:-0.63735 99:-0.637204 100:-0.637019 101:-0.636914 102:-0.636888 103:-0.636683 104:-0.636663 
0 0 0 0 0 0 0 0.9065872999754028 0.4588238950405838 1:-0.581098 2:-0.52474 3:-0.423346 4:-0.617559 5:-0.62747 6:-0.619553 7:-0.615252 8:-0.611804 9:-0.659832 10:-0.659478 11:-0.655212 12:-0.654147 13:-0.652782 14:-0.650425 15:-0.649482 16:-0.648624 17:-0.64505 18:-0.642986 19:-0.640061 20:-0.63932 21:-0.637866 22:-0.638001 23:-0.636647 24:-0.635924 25:-0.63559 26:-0.636089 27:-0.635841 28:-0.636179 29:-0.636713 30:-0.635638 31:-0.636331 32:-0.635264 33:-0.635155 34:-0.636378 35:-0.63777 36:-0.637599 37:-0.636654 38:-0.636785 39:-0.63579 40:-0.635453 41:-0.635765 42:-0.635075 43:-0.63436 44:-0.634771 45:-0.635378 46:-0.635012 47:-0.63422 48:-0.633734 49:-0.63297 50:-0.632594 51:-0.632329 52:-0.632655 53:-0.6323 54:-0.632034 55:-0.632213 56:-0.631765 57:-0.631603 58:-0.631715 59:-0.631439 60:-0.631068 61:-0.630678 62:-0.630665 63:-0.630546 64:-0.63035 65:-0.630193 66:-0.630115 67:-0.630553 68:-0.630195 69:-0.629875 70:-0.629705 71:-0.629528 72:-0.629202 73:-0.628852 74:-0.628787 75:-0.628483 76:-0.628007 77:-0.629042 78:-0.628779 79:-0.628453 80:-0.628252 81:-0.62792 82:-0.627613 83:-0.627481 84:-0.627519 85:-0.627239 86:-0.627074 87:-0.62687 88:-0.626649 89:-0.626564 90:-0.626452 91:-0.626132 92:-0.62599 93:-0.625894 94:-0.625709 95:-0.625452 96:-0.625385 97:-0.625326 98:-0.625052 99:-0.62489 100:-0.624842 101:-0.625016 102:-0.62488 103:-0.624775 104:-0.624472 
0 0 0 0 0 0 4.836966105520691 0 0 1:-0.88635 2:-0.661458 3:-0.641679 4:-0.874728 5:-0.865422 6:-0.885531 7:-0.875633 8:-0.873569 9:-0.869132 10:-0.868204 11:-0.866378 12:-0.866713 13:-0.868434 14:-0.86825 15:-0.867299 16:-0.868 17:-0.878623 18:-0.885542 19:-0.885036 20:-0.885982 21:-0.885061 22:-0.886809 23:-0.885915 24:-0.886264 25:-0.886501 26:-0.885471 27:-0.885224 28:-0.884071 29:-0.883516 30:-0.883321 31:-0.882809 32:-0.882321 33:-0.882211 34:-0.881379 35:-0.881855 36:-0.882697 37:-0.88438 38:-0.883927 39:-0.883172 40:-0.883377 41:-0.883584 42:-0.882937 43:-0.883133 44:-0.883 45:-0.883245 46:-0.882934 47:-0.88323 48:-0.884022 49:-0.885898 50:-0.886853 51:-0.886401 52:-0.886911 53:-0.886653 54:-0.886518 55:-0.88598 56:-0.886216 57:-0.886558 58:-0.886288 59:-0.885915 60:-0.885578 61:-0.885081 62:-0.885227 63:-0.884778 64:-0.884646 65:-0.886374 66:-0.885924 67:-0.885773 68:-0.885486 69:-0.885283 70:-0.885224 71:-0.885078 72:-0.884848 73:-0.884861 74:-0.884966 75:-0.885493 76:-0.885091 77:-0.884858 78:-0.885485 79:-0.885277 80:-0.885157 81:-0.884908 82:-0.885458 83:-0.88522 84:-0.885016 85:-0.884686 86:-0.884638 87:-0.884444 88:-0.884339 89:-0.884302 90:-0.884551 91:-0.884386 92:-0.88436 93:-0.884213 94:-0.884237 95:-0.884049 96:-0.883818 97:-0.883542 98:-0.883653 99:-0.883378 100:-0.883348 101:-0.883259 102:-0.883043 103:-0.882925 104:-0.883024 
1.354060496660162 0 0 0 0 0 0 0 0 1:-0.817752 2:-0.707031 3:-0.65023 4:-0.871974 5:-0.8599 6:-0.878405 7:-0.869888 8:-0.867976 9:-0.864126 10:-0.86444 11:-0.86279 12:-0.86262 13:-0.864522 14:-0.864227 15:-0.864259 16:-0.869551 17:-0.877736 18:-0.882733 19:-0.88667 20:-0.887479 21:-0.886152 22:-0.884939 23:-0.883397 24:-0.883063 25:-0.882165 26:-0.881696 27:-0.881387 28:-0.880721 29:-0.8802 30:-0.879261 31:-0.879236 32:-0.87837 33:-0.878572 34:-0.87838 35:-0.879827 36:-0.879795 37:-0.879733 38:-0.879342 39:-0.879358 40:-0.878612 41:-0.878325 42:-0.878183 43:-0.878465 44:-0.878527 45:-0.878893 46:-0.878343 47:-0.877949 48:-0.877715 49:-0.87857 50:-0.878953 51:-0.878934 52:-0.878995 53:-0.878734 54:-0.880771 55:-0.881941 56:-0.881777 57:-0.881445 58:-0.88095 59:-0.880462 60:-0.880277 61:-0.88023 62:-0.879799 63:-0.8794 64:-0.879782 65:-0.879567 66:-0.88078 67:-0.880385 68:-0.880001 69:-0.88014 70:-0.879946 71:-0.879582 72:-0.879227 73:-0.878871 74:-0.878543 75:-0.878709 76:-0.878673 77:-0.878651 78:-0.878481 79:-0.878181 80:-0.877912 81:-0.878073 82:-0.877849 83:-0.877564 84:-0.877856 85:-0.877815 86:-0.87754 87:-0.877421 88:-0.877518 89:-0.878364 90:-0.878939 91:-0.879539 92:-0.879255 93:-0.87912 94:-0.879469 95:-0.879656 96:-0.879396 97:-0.879141 98:-0.879175 99:-0.879261 100:-0.879191 101:-0.879056 102:-0.879373 103:-0.879538 104:-0.879866 
0 0 0.9650849622840849 0 0 0 0 0 0 1:-0.84861 2:-0.65625 3:-0.667581 4:-0.894699 5:-0.880633 6:-0.905406 7:-0.898292 8:-0.894406 9:-0.890317 10:-0.889873 11:-0.889746 12:-0.888661 13:-0.889268 14:-0.888113 15:-0.888546 16:-0.893567 17:-0.894653 18:-0.893843 19:-0.893863 20:-0.893153 21:-0.897069 22:-0.902334 23:-0.903931 24:-0.902627 25:-0.903392 26:-0.903916 27:-0.902997 28:-0.902484 29:-0.902024 30:-0.901701 31:-0.902547 32:-0.901712 33:-0.902064 34:-0.901292 35:-0.901392 36:-0.900735 37:-0.900961 38:-0.900316 39:-0.900228 40:-0.899581 41:-0.899495 42:-0.899879 43:-0.90078 44:-0.900727 45:-0.9005 46:-0.900229 47:-0.90016 48:-0.901593 49:-0.901098 50:-0.900863 51:-0.900695 52:-0.900322 53:-0.900829 54:-0.90062 55:-0.900555 56:-0.900544 57:-0.901619 58:-0.901835 59:-0.902054 60:-0.90186 61:-0.901599 62:-0.901216 63:-0.901092 64:-0.900745 65:-0.900694 66:-0.90036 67:-0.90025 68:-0.89993 69:-0.899803 70:-0.899804 71:-0.899675 72:-0.899411 73:-0.899561 74:-0.899345 75:-0.899186 76:-0.89918 77:-0.899966 78:-0.899801 79:-0.899512 80:-0.899392 81:-0.899272 82:-0.899403 83:-0.899148 84:-0.899181 85:-0.899054 86:-0.898869 87:-0.898884 88:-0.899268 89:-0.899362 90:-0.899334 91:-0.899369 92:-0.899187 93:-0.899071 94:-0.899111 95:-0.900299 96:-0.900563 97:-0.900771 98:-0.90158 99:-0.902 100:-0.902185 101:-0.902267 102:-0.902344 103:-0.902345 104:-0.902783 
0 0 2.098482225272434 0.05141893647414764 0 0.002251212385381761 2.488098273449078 0 0 1:-0.727111 2:-0.601562 3:-0.565719 4:-0.767391 5:-0.771111 6:-0.766998 7:-0.759835 8:-0.766724 9:-0.76366 10:-0.767846 11:-0.770972 12:-0.7947 13:-0.793178 14:-0.795303 15:-0.792408 16:-0.791674 17:-0.793024 18:-0.790947 19:-0.788074 20:-0.788669 21:-0.790558 22:-0.790552 23:-0.789371 24:-0.787816 25:-0.786703 26:-0.786873 27:-0.785487 28:-0.784411 29:-0.7848 30:-0.785031 31:-0.784378 32:-0.784691 33:-0.785178 34:-0.784681 35:-0.785137 36:-0.784826 37:-0.785021 38:-0.784508 39:-0.783793 40:-0.783689 41:-0.78353 42:-0.782897 43:-0.783144 44:-0.783058 45:-0.782469 46:-0.782005 47:-0.781941 48:-0.781185 49:-0.780554 50:-0.780054 51:-0.779544 52:-0.779751 53:-0.780058 54:-0.779708 55:-0.779283 56:-0.778845 57:-0.778622 58:-0.778408 59:-0.778964 60:-0.778886 61:-0.778704 62:-0.778263 63:-0.778297 64:-0.777975 65:-0.777676 66:-0.778081 67:-0.777885 68:-0.777824 69:-0.777539 70:-0.777394 71:-0.777476 72:-0.77738 73:-0.778035 74:-0.778057 75:-0.777697 76:-0.777652 77:-0.777406 78:-0.777103 79:-0.777113 80:-0.777134 81:-0.776752 82:-0.776562 83:-0.776333 84:-0.775952 85:-0.776108 86:-0.7761 87:-0.775973 88:-0.776245 89:-0.776055 90:-0.775971 91:-0.775934 92:-0.77576 93:-0.775593 94:-0.775511 95:-0.775321 96:-0.775142 97:-0.77501 98:-0.774838 99:-0.774658 100:-0.774489 101:-0.774451 102:-0.774282 103:-0.774389 104:-0.774567 
0 0.1024488573969857 0 0.155681981676682 0 0.2244012880073012 0.8432330846728322 0.2792780167655505 4.132530118364539 1:-0.777539 2:-0.621094 3:-0.58773 4:-0.73723 5:-0.804594 6:-0.770018 7:-0.751291 8:-0.744396 9:-0.738844 10:-0.736967 11:-0.769467 12:-0.77388 13:-0.768776 14:-0.768266 15:-0.772266 16:-0.769377 17:-0.766809 18:-0.764381 19:-0.768183 20:-0.765245 21:-0.764127 22:-0.763303 23:-0.762813 24:-0.76113 25:-0.764095 26:-0.766845 27:-0.769865 28:-0.768014 29:-0.767329 30:-0.765295 31:-0.765653 32:-0.764189 33:-0.763302 34:-0.761603 35:-0.760192 36:-0.759181 37:-0.758272 38:-0.757622 39:-0.757017 40:-0.756206 41:-0.756369 42:-0.75582 43:-0.754913 44:-0.754107 45:-0.753159 46:-0.753744 47:-0.752776 48:-0.751885 49:-0.7518 50:-0.751661 51:-0.750964 52:-0.750363 53:-0.750085 54:-0.749729 55:-0.749571 56:-0.749123 57:-0.748576 58:-0.74844 59:-0.748151 60:-0.747876 61:-0.747516 62:-0.747328 63:-0.747133 64:-0.746916 65:-0.746929 66:-0.746683 67:-0.746541 68:-0.746222 69:-0.745988 70:-0.745691 71:-0.745658 72:-0.745527 73:-0.745289 74:-0.745118 75:-0.744836 76:-0.744683 77:-0.744661 78:-0.744451 79:-0.744161 80:-0.744255 81:-0.743837 82:-0.743732 83:-0.7438 84:-0.743655 85:-0.743499 86:-0.743271 87:-0.743216 88:-0.743434 89:-0.743169 90:-0.742824 91:-0.743389 92:-0.743167 93:-0.743107 94:-0.742925 95:-0.74298 96:-0.7428 97:-0.74262 98:-0.742327 99:-0.742436 100:-0.7425 101:-0.742716 102:-0.742775 103:-0.742667 104:-0.74254 
0 0.06508744720123449 1.358113634799394 0.1398711444149339 0 0.1377610848042055 1.14335398869103 0.2398593923579993 0.2842569772300158 1:-0.612171 2:-0.558594 3:-0.526857 4:-0.720744 5:-0.766737 6:-0.762348 7:-0.741028 8:-0.730433 9:-0.734562 10:-0.761329 11:-0.753068 12:-0.746948 13:-0.743233 14:-0.742793 15:-0.743738 16:-0.749753 17:-0.755475 18:-0.755861 19:-0.753219 20:-0.751004 21:-0.7496 22:-0.747561 23:-0.746653 24:-0.746058 25:-0.744962 26:-0.745269 27:-0.744211 28:-0.743866 29:-0.744861 30:-0.743404 31:-0.743285 32:-0.742757 33:-0.74196 34:-0.741381 35:-0.740228 36:-0.740073 37:-0.740034 38:-0.739544 39:-0.738696 40:-0.73846 41:-0.738467 42:-0.738217 43:-0.737701 44:-0.737482 45:-0.739309 46:-0.738699 47:-0.738054 48:-0.737625 49:-0.736916 50:-0.736955 51:-0.737293 52:-0.737157 53:-0.736417 54:-0.735761 55:-0.735459 56:-0.734917 57:-0.734644 58:-0.734543 59:-0.73418 60:-0.73415 61:-0.734133 62:-0.733974 63:-0.733803 64:-0.733708 65:-0.733436 66:-0.733401 67:-0.733124 68:-0.733067 69:-0.732663 70:-0.732589 71:-0.732412 72:-0.732126 73:-0.732357 74:-0.732164 75:-0.731856 76:-0.73163 77:-0.731435 78:-0.731083 79:-0.730719 80:-0.730582 81:-0.730632 82:-0.730457 83:-0.730741 84:-0.73049 85:-0.730396 86:-0.730379 87:-0.730111 88:-0.730031 89:-0.729806 90:-0.729658 91:-0.729458 92:-0.7292 93:-0.729125 94:-0.728885 95:-0.728812 96:-0.72865 97:-0.728417 98:-0.728332 99:-0.728123 100:-0.728018 101:-0.727948 102:-0.72777 103:-0.727807 104:-0.727643 
0 0.03550708427407251 0 0.07488099030965222 0 0.09554502871031215 0.1004712543638037 0 0.8875689926022092 1:-0.766787 2:-0.559896 3:-0.501026 4:-0.704261 5:-0.71916 6:-0.711545 7:-0.698541 8:-0.695094 9:-0.705401 10:-0.714047 11:-0.725617 12:-0.723857 13:-0.729624 14:-0.73078 15:-0.731648 16:-0.731181 17:-0.731914 18:-0.728175 19:-0.727948 20:-0.725474 21:-0.7237 22:-0.722119 23:-0.720984 24:-0.719472 25:-0.718004 26:-0.717353 27:-0.716646 28:-0.715571 29:-0.71463 30:-0.714255 31:-0.713892 32:-0.712947 33:-0.712459 34:-0.712808 35:-0.712556 36:-0.712617 37:-0.712399 38:-0.712903 39:-0.712516 40:-0.712026 41:-0.711372 42:-0.711339 43:-0.711376 44:-0.711001 45:-0.710488 46:-0.710493 47:-0.711199 48:-0.710409 49:-0.710902 50:-0.711318 51:-0.711334 52:-0.711593 53:-0.711437 54:-0.711432 55:-0.711487 56:-0.711044 57:-0.711153 58:-0.710973 59:-0.710535 60:-0.710788 61:-0.710425 62:-0.710991 63:-0.710833 64:-0.711454 65:-0.71156 66:-0.712074 67:-0.711897 68:-0.712081 69:-0.71227 70:-0.712321 71:-0.712922 72:-0.71256 73:-0.712233 74:-0.712265 75:-0.712667 76:-0.712318 77:-0.712563 78:-0.712575 79:-0.7123 80:-0.712333 81:-0.712407 82:-0.712229 83:-0.712077 84:-0.712058 85:-0.711771 86:-0.711944 87:-0.711892 88:-0.711991 89:-0.711743 90:-0.7117 91:-0.711628 92:-0.711563 93:-0.711628 94:-0.711938 95:-0.711851 96:-0.711818 97:-0.711733 98:-0.711567 99:-0.711437 100:-0.711389 101:-0.711262 102:-0.711066 103:-0.711181 104:-0.711494 
0 0 0 0 0 0.01707168062908757 0 0 0 1:-0.712489 2:-0.526042 3:-0.4613 4:-0.700262 5:-0.770895 6:-0.73181 7:-0.709666 8:-0.701947 9:-0.698746 10:-0.732557 11:-0.748282 12:-0.739027 13:-0.73433 14:-0.734807 15:-0.734965 16:-0.730454 17:-0.732082 18:-0.73091 19:-0.728501 20:-0.726784 21:-0.724418 22:-0.722788 23:-0.720797 24:-0.719889 25:-0.718038 26:-0.71757 27:-0.715766 28:-0.715061 29:-0.714302 30:-0.713269 31:-0.712457 32:-0.711279 33:-0.711064 34:-0.710445 35:-0.709682 36:-0.70934 37:-0.708722 38:-0.707935 39:-0.707706 40:-0.707177 41:-0.706533 42:-0.706963 43:-0.706618 44:-0.706883 45:-0.70727 46:-0.707256 47:-0.706777 48:-0.70661 49:-0.706826 50:-0.706299 51:-0.706304 52:-0.705841 53:-0.706013 54:-0.70575 55:-0.705583 56:-0.705409 57:-0.705379 58:-0.705631 59:-0.706112 60:-0.705717 61:-0.705457 62:-0.705456 63:-0.705671 64:-0.70575 65:-0.705934 66:-0.70691 67:-0.706727 68:-0.706715 69:-0.706768 70:-0.706594 71:-0.706917 72:-0.707624 73:-0.707249 74:-0.707165 75:-0.706979 76:-0.706808 77:-0.706766 78:-0.706741 79:-0.707235 80:-0.707155 81:-0.707245 82:-0.706973 83:-0.706839 84:-0.706451 85:-0.707024 86:-0.706675 87:-0.706808 88:-0.706652 89:-0.706844 90:-0.706759 91:-0.706756 92:-0.706384 93:-0.706545 94:-0.706472 95:-0.706391 96:-0.706021 97:-0.706026 98:-0.706655 99:-0.706549 100:-0.706685 101:-0.706455 102:-0.707068 103:-0.707005 104:-0.708773 
0 0 8.688323829180138 0 0 0.6976260890751995 0.4335348742449907 0.3844679148218318 0.01719450556509673 1:-0.76926 2:-0.614583 3:-0.579306 4:-0.807139 5:-0.8264 6:-0.81374 7:-0.804203 8:-0.80163 9:-0.815662 10:-0.813873 11:-0.810997 12:-0.810038 13:-0.812656 14:-0.829263 15:-0.827397 16:-0.824898 17:-0.821337 18:-0.819678 19:-0.822653 20:-0.823737 21:-0.823068 22:-0.824929 23:-0.82351 24:-0.822503 25:-0.821943 26:-0.820876 27:-0.81982 28:-0.819337 29:-0.81931 30:-0.818931 31:-0.821886 32:-0.821225 33:-0.82155 34:-0.821095 35:-0.823841 36:-0.825328 37:-0.827056 38:-0.826363 39:-0.825783 40:-0.825123 41:-0.824467 42:-0.825358 43:-0.825332 44:-0.824901 45:-0.82739 46:-0.82749 47:-0.82981 48:-0.829346 49:-0.829378 50:-0.829659 51:-0.829379 52:-0.829566 53:-0.82917 54:-0.828477 55:-0.827719 56:-0.827316 57:-0.826896 58:-0.826293 59:-0.825866 60:-0.825406 61:-0.824703 62:-0.824791 63:-0.824538 64:-0.824106 65:-0.823847 66:-0.823433 67:-0.822982 68:-0.822552 69:-0.822284 70:-0.822091 71:-0.821675 72:-0.821318 73:-0.821022 74:-0.820695 75:-0.82042 76:-0.820076 77:-0.819804 78:-0.819489 79:-0.819168 80:-0.8189 81:-0.818557 82:-0.818572 83:-0.818202 84:-0.818081 85:-0.817797 86:-0.817545 87:-0.817455 88:-0.81715 89:-0.816937 90:-0.816572 91:-0.816363 92:-0.816186 93:-0.81598 94:-0.815817 95:-0.815632 96:-0.815532 97:-0.815388 98:-0.815203 99:-0.815011 100:-0.81483 101:-0.81476 102:-0.814649 103:-0.814566 104:-0.81525 
0 0.3734533194616136 3.700744020309542 0 0 1.027394620466438 0 0 0 1:-0.816139 2:-0.570312 3:-0.562683 4:-0.804062 5:-0.847942 6:-0.853924 7:-0.834409 8:-0.827989 9:-0.816784 10:-0.815233 11:-0.812616 12:-0.80862 13:-0.818263 14:-0.821509 15:-0.821996 16:-0.819323 17:-0.816785 18:-0.823712 19:-0.823775 20:-0.822498 21:-0.822343 22:-0.822066 23:-0.822119 24:-0.820659 25:-0.81976 26:-0.818918 27:-0.818574 28:-0.817911 29:-0.817867 30:-0.820536 31:-0.822195 32:-0.824798 33:-0.82534 34:-0.824571 35:-0.823923 36:-0.823458 37:-0.822791 38:-0.821572 39:-0.822059 40:-0.824515 41:-0.825582 42:-0.824981 43:-0.825584 44:-0.826193 45:-0.825602 46:-0.825531 47:-0.827395 48:-0.826715 49:-0.826351 50:-0.826254 51:-0.825694 52:-0.826949 53:-0.82639 54:-0.826036 55:-0.826164 56:-0.826386 57:-0.825524 58:-0.825129 59:-0.82453 60:-0.824103 61:-0.823546 62:-0.823861 63:-0.823372 64:-0.822842 65:-0.822391 66:-0.82231 67:-0.821848 68:-0.821725 69:-0.821271 70:-0.820861 71:-0.820382 72:-0.820087 73:-0.81969 74:-0.819318 75:-0.818982 76:-0.818698 77:-0.818333 78:-0.818043 79:-0.817774 80:-0.817508 81:-0.817162 82:-0.816849 83:-0.816697 84:-0.816261 85:-0.816016 86:-0.81598 87:-0.815725 88:-0.815558 89:-0.815341 90:-0.814951 91:-0.814896 92:-0.81464 93:-0.8144 94:-0.814202 95:-0.813952 96:-0.813737 97:-0.813521 98:-0.813338 99:-0.813007 100:-0.812875 101:-0.812737 102:-0.812539 103:-0.812368 104:-0.812658 
0 0.9391041447751738 0 0.1053214753247469 0 0 0 0 0 1:-0.783883 2:-0.488281 3:-0.501125 4:-0.803036 5:-0.824302 6:-0.810692 7:-0.801767 8:-0.798025 9:-0.794039 10:-0.792793 11:-0.805214 12:-0.80453 13:-0.821095 14:-0.841353 15:-0.847889 16:-0.847577 17:-0.844545 18:-0.841355 19:-0.836905 20:-0.834224 21:-0.835379 22:-0.83757 23:-0.838528 24:-0.836198 25:-0.833865 26:-0.833504 27:-0.838349 28:-0.839599 29:-0.839562 30:-0.84119 31:-0.839294 32:-0.838799 33:-0.838654 34:-0.837198 35:-0.837905 36:-0.837797 37:-0.841229 38:-0.840241 39:-0.838796 40:-0.838934 41:-0.83801 42:-0.837035 43:-0.835741 44:-0.83545 45:-0.834644 46:-0.833597 47:-0.832487 48:-0.831704 49:-0.831031 50:-0.830131 51:-0.829436 52:-0.828563 53:-0.827535 54:-0.826589 55:-0.827066 56:-0.82646 57:-0.825742 58:-0.824863 59:-0.82442 60:-0.823805 61:-0.82341 62:-0.823033 63:-0.822498 64:-0.822022 65:-0.821496 66:-0.820925 67:-0.820451 68:-0.820151 69:-0.819777 70:-0.819341 71:-0.81891 72:-0.818321 73:-0.818263 74:-0.81773 75:-0.817644 76:-0.8174 77:-0.81685 78:-0.816621 79:-0.816244 80:-0.815957 81:-0.81556 82:-0.815159 83:-0.814991 84:-0.814535 85:-0.814245 86:-0.813951 87:-0.813682 88:-0.813283 89:-0.813163 90:-0.812894 91:-0.812853 92:-0.813823 93:-0.813997 94:-0.814274 95:-0.814185 96:-0.8141 97:-0.813774 98:-0.813746 99:-0.813472 100:-0.813494 101:-0.813984 102:-0.814177 103:-0.814002 104:-0.813798 
0 0 0 0.005808531797398639 0 0 1.296080437912194 0 2.217477312787556 1:-0.737218 2:-0.641927 3:-0.594168 4:-0.795087 5:-0.816145 6:-0.801863 7:-0.795532 8:-0.787306 9:-0.784928 10:-0.787175 11:-0.788007 12:-0.794276 13:-0.81067 14:-0.822605 15:-0.822413 16:-0.819213 17:-0.816941 18:-0.815516 19:-0.812611 20:-0.810719 21:-0.811679 22:-0.812579 23:-0.812573 24:-0.812044 25:-0.810096 26:-0.811834 27:-0.810708 28:-0.811045 29:-0.810066 30:-0.811485 31:-0.810767 32:-0.811422 33:-0.81135 34:-0.811023 35:-0.809959 36:-0.810377 37:-0.809611 38:-0.808881 39:-0.81118 40:-0.810352 41:-0.811232 42:-0.813896 43:-0.815374 44:-0.81432 45:-0.814121 46:-0.813668 47:-0.813309 48:-0.81267 49:-0.812597 50:-0.812707 51:-0.812307 52:-0.814191 53:-0.814543 54:-0.81372 55:-0.814105 56:-0.813632 57:-0.813022 58:-0.812981 59:-0.812455 60:-0.812127 61:-0.81165 62:-0.811987 63:-0.811931 64:-0.811453 65:-0.810831 66:-0.810435 67:-0.809902 68:-0.809528 69:-0.809174 70:-0.808999 71:-0.808821 72:-0.808406 73:-0.808155 74:-0.807678 75:-0.807522 76:-0.80703 77:-0.807027 78:-0.806724 79:-0.806406 80:-0.806446 81:-0.805957 82:-0.805833 83:-0.805434 84:-0.805324 85:-0.805202 86:-0.804818 87:-0.804601 88:-0.804568 89:-0.804364 90:-0.804139 91:-0.803902 92:-0.803678 93:-0.803669 94:-0.803349 95:-0.803155 96:-0.802845 97:-0.802786 98:-0.802731 99:-0.802567 100:-0.802272 101:-0.802013 102:-0.802224 103:-0.802172 104:-0.802235 
0 0 0 10.19696321546411 0 27.25982033289061 0 0 0 1:-0.878394 2:-0.744792 3:-0.731209 4:-0.912625 5:-0.915401 6:-0.930163 7:-0.923234 8:-0.917372 9:-0.914947 10:-0.912276 11:-0.911937 12:-0.910646 13:-0.909548 14:-0.908462 15:-0.909941 16:-0.909305 17:-0.908345 18:-0.907728 19:-0.913916 20:-0.91298 21:-0.912699 22:-0.912286 23:-0.911677 24:-0.916171 25:-0.91536 26:-0.919958 27:-0.920588 28:-0.91997 29:-0.919202 30:-0.919865 31:-0.919569 32:-0.918872 33:-0.918652 34:-0.918662 35:-0.918316 36:-0.917774 37:-0.917236 38:-0.916726 39:-0.917282 40:-0.91771 41:-0.917213 42:-0.916744 43:-0.917012 44:-0.918024 45:-0.91771 46:-0.917302 47:-0.917485 48:-0.917197 49:-0.917177 50:-0.917522 51:-0.917336 52:-0.916942 53:-0.916772 54:-0.916751 55:-0.916672 56:-0.916883 57:-0.916996 58:-0.916877 59:-0.916763 60:-0.916828 61:-0.916605 62:-0.916322 63:-0.917073 64:-0.917195 65:-0.917393 66:-0.918124 67:-0.917848 68:-0.917578 69:-0.917531 70:-0.917422 71:-0.917368 72:-0.917306 73:-0.917505 74:-0.91759 75:-0.917503 76:-0.91746 77:-0.917209 78:-0.917839 79:-0.91838 80:-0.91816 81:-0.918012 82:-0.917775 83:-0.917695 84:-0.917555 85:-0.917401 86:-0.917301 87:-0.917102 88:-0.917036 89:-0.917219 90:-0.917569 91:-0.917481 92:-0.917278 93:-0.917289 94:-0.917317 95:-0.917903 96:-0.918423 97:-0.918809 98:-0.91861 99:-0.918876 100:-0.918678 101:-0.918599 102:-0.918828 103:-0.918956 104:-0.919073 
0 0 0 0 0 6.364125139928377 0 0 0 1:-0.881512 2:-0.709635 3:-0.679099 4:-0.888794 5:-0.869667 6:-0.908754 7:-0.898589 8:-0.914776 9:-0.905421 10:-0.900594 11:-0.898054 12:-0.894886 13:-0.89435 14:-0.892714 15:-0.891448 16:-0.889906 17:-0.892633 18:-0.894558 19:-0.896369 20:-0.897041 21:-0.89698 22:-0.895703 23:-0.896209 24:-0.895003 25:-0.894477 26:-0.895779 27:-0.895684 28:-0.897555 29:-0.898021 30:-0.897496 31:-0.897477 32:-0.897691 33:-0.897421 34:-0.896999 35:-0.896617 36:-0.897467 37:-0.897706 38:-0.897574 39:-0.897226 40:-0.896502 41:-0.895863 42:-0.895564 43:-0.894982 44:-0.895009 45:-0.894784 46:-0.894567 47:-0.895499 48:-0.896699 49:-0.8963 50:-0.896045 51:-0.895561 52:-0.895396 53:-0.896404 54:-0.896352 55:-0.89664 56:-0.896751 57:-0.896712 58:-0.896701 59:-0.897468 60:-0.897187 61:-0.897774 62:-0.897557 63:-0.897167 64:-0.89697 65:-0.896775 66:-0.896413 67:-0.896596 68:-0.8968 69:-0.897362 70:-0.89708 71:-0.897008 72:-0.896836 73:-0.897362 74:-0.897984 75:-0.898264 76:-0.898412 77:-0.89812 78:-0.89778 79:-0.897716 80:-0.898989 81:-0.899113 82:-0.898779 83:-0.898606 84:-0.898485 85:-0.898325 86:-0.898164 87:-0.898293 88:-0.89819 89:-0.897913 90:-0.897763 91:-0.897627 92:-0.897348 93:-0.897308 94:-0.897102 95:-0.896846 96:-0.896724 97:-0.896479 98:-0.896496 99:-0.896252 100:-0.896016 101:-0.896257 102:-0.896225 103:-0.896085 104:-0.896255 
0 2.915716071979177 7.39267209862508 0 0 0 28.60752795183623 0 0 1:-0.903231 2:-0.675781 3:-0.645404 4:-0.892588 5:-0.861031 6:-0.908382 7:-0.904398 8:-0.912972 9:-0.906948 10:-0.904307 11:-0.899935 12:-0.896879 13:-0.895909 14:-0.894949 15:-0.894288 16:-0.89371 17:-0.892065 18:-0.891947 19:-0.891133 20:-0.896381 21:-0.898551 22:-0.899842 23:-0.89863 24:-0.897442 25:-0.896932 26:-0.896033 27:-0.895653 28:-0.895328 29:-0.894603 30:-0.894841 31:-0.89535 32:-0.896725 33:-0.897467 34:-0.89675 35:-0.896838 36:-0.897058 37:-0.897664 38:-0.897369 39:-0.897075 40:-0.896942 41:-0.898081 42:-0.897796 43:-0.897227 44:-0.896978 45:-0.896797 46:-0.896323 47:-0.895801 48:-0.896148 49:-0.895965 50:-0.895776 51:-0.895601 52:-0.895207 53:-0.895513 54:-0.896676 55:-0.897694 56:-0.898513 57:-0.898271 58:-0.89798 59:-0.89811 60:-0.897844 61:-0.899199 62:-0.898806 63:-0.898441 64:-0.89809 65:-0.898805 66:-0.898521 67:-0.90036 68:-0.900967 69:-0.901025 70:-0.901498 71:-0.901429 72:-0.901759 73:-0.901382 74:-0.901197 75:-0.900845 76:-0.900489 77:-0.900301 78:-0.900576 79:-0.900476 80:-0.900185 81:-0.899838 82:-0.89992 83:-0.900083 84:-0.900448 85:-0.901528 86:-0.90122 87:-0.90093 88:-0.901658 89:-0.901928 90:-0.901763 91:-0.90148 92:-0.901188 93:-0.901531 94:-0.901505 95:-0.901231 96:-0.901015 97:-0.900916 98:-0.900755 99:-0.90127 100:-0.901339 101:-0.901123 102:-0.90096 103:-0.901058 104:-0.90139 
0 0 0 0.1586653646935802 0 0 0.9934617907470338 0 1.834801218798725 1:-0.846782 2:-0.626302 3:-0.59142 4:-0.830123 5:-0.835182 6:-0.83198 7:-0.826404 8:-0.823485 9:-0.819036 10:-0.819957 11:-0.820144 12:-0.820537 13:-0.822855 14:-0.838674 15:-0.853081 16:-0.853007 17:-0.850441 18:-0.849109 19:-0.847738 20:-0.847452 21:-0.845914 22:-0.845612 23:-0.844532 24:-0.84427 25:-0.843966 26:-0.84405 27:-0.844982 28:-0.844457 29:-0.844199 30:-0.842902 31:-0.842831 32:-0.842296 33:-0.84186 34:-0.841368 35:-0.840641 36:-0.840094 37:-0.839583 38:-0.838761 39:-0.838321 40:-0.838669 41:-0.838487 42:-0.838076 43:-0.837455 44:-0.83733 45:-0.837215 46:-0.837382 47:-0.837186 48:-0.837808 49:-0.837441 50:-0.837205 51:-0.836953 52:-0.836819 53:-0.836487 54:-0.836257 55:-0.836282 56:-0.83648 57:-0.836331 58:-0.836262 59:-0.836085 60:-0.836437 61:-0.836186 62:-0.836128 63:-0.836366 64:-0.836176 65:-0.835743 66:-0.835631 67:-0.835443 68:-0.835285 69:-0.835854 70:-0.835884 71:-0.835646 72:-0.835389 73:-0.835243 74:-0.835113 75:-0.836223 76:-0.836071 77:-0.836028 78:-0.835714 79:-0.835543 80:-0.835374 81:-0.835504 82:-0.835286 83:-0.835197 84:-0.835049 85:-0.835032 86:-0.835363 87:-0.835072 88:-0.835123 89:-0.835647 90:-0.835346 91:-0.835277 92:-0.835234 93:-0.835547 94:-0.836361 95:-0.837624 96:-0.837495 97:-0.837348 98:-0.837819 99:-0.837572 100:-0.837765 101:-0.837965 102:-0.837724 103:-0.83756 104:-0.838623 
0 0 22.42182269826291 0 0 0 2.810699579407046 1.258877805328098 0.09694337952231576 1:-0.819365 2:-0.617188 3:-0.600866 4:-0.808019 5:-0.830386 6:-0.818115 7:-0.809774 8:-0.805118 9:-0.801532 10:-0.800906 11:-0.812078 12:-0.810666 13:-0.819872 14:-0.822768 15:-0.83295 16:-0.833161 17:-0.831474 18:-0.829516 19:-0.826568 20:-0.8258 21:-0.824971 22:-0.827455 23:-0.827509 24:-0.828619 25:-0.827319 26:-0.826587 27:-0.82681 28:-0.825166 29:-0.824435 30:-0.82392 31:-0.823858 32:-0.823162 33:-0.822202 34:-0.821469 35:-0.821107 36:-0.820607 37:-0.820008 38:-0.819836 39:-0.819473 40:-0.818798 41:-0.818351 42:-0.817886 43:-0.818183 44:-0.818173 45:-0.818042 46:-0.817765 47:-0.817266 48:-0.817053 49:-0.816538 50:-0.816095 51:-0.815975 52:-0.81542 53:-0.815112 54:-0.81501 55:-0.814947 56:-0.814878 57:-0.814361 58:-0.815037 59:-0.814745 60:-0.814876 61:-0.814793 62:-0.814578 63:-0.814218 64:-0.814098 65:-0.813956 66:-0.813834 67:-0.813643 68:-0.813383 69:-0.813212 70:-0.813167 71:-0.812862 72:-0.814069 73:-0.813974 74:-0.813673 75:-0.81399 76:-0.813789 77:-0.813533 78:-0.813417 79:-0.813168 80:-0.813037 81:-0.812729 82:-0.81284 83:-0.813439 84:-0.813255 85:-0.813143 86:-0.812995 87:-0.812842 88:-0.812834 89:-0.812926 90:-0.812761 91:-0.81324 92:-0.813115 93:-0.812937 94:-0.812867 95:-0.813719 96:-0.814103 97:-0.814423 98:-0.814632 99:-0.814944 100:-0.814801 101:-0.814701 102:-0.814606 103:-0.814471 104:-0.815391 
0 0.02443133788303831 0 0.03427972332513161 0 0.0881195038691396 0 0 2.280264411290566 1:-0.614644 2:-0.596354 3:-0.5365 4:-0.701865 5:-0.727149 6:-0.714956 7:-0.699682 8:-0.696777 9:-0.710973 10:-0.708543 11:-0.732385 12:-0.727907 13:-0.727975 14:-0.72345 15:-0.732302 16:-0.731815 17:-0.728751 18:-0.730634 19:-0.726859 20:-0.724817 21:-0.725024 22:-0.722955 23:-0.722519 24:-0.720393 25:-0.720723 26:-0.71927 27:-0.718891 28:-0.718556 29:-0.717215 30:-0.717433 31:-0.716344 32:-0.716095 33:-0.715289 34:-0.714679 35:-0.714125 36:-0.714821 37:-0.715232 38:-0.71506 39:-0.714339 40:-0.713426 41:-0.71269 42:-0.71298 43:-0.713489 44:-0.713112 45:-0.713394 46:-0.712984 47:-0.712746 48:-0.712753 49:-0.713093 50:-0.713657 51:-0.713351 52:-0.712802 53:-0.712982 54:-0.713132 55:-0.712989 56:-0.712734 57:-0.712583 58:-0.712538 59:-0.712943 60:-0.712503 61:-0.71235 62:-0.712164 63:-0.711878 64:-0.711946 65:-0.711527 66:-0.711371 67:-0.711186 68:-0.711051 69:-0.711589 70:-0.711162 71:-0.710977 72:-0.710719 73:-0.710697 74:-0.710606 75:-0.710444 76:-0.710179 77:-0.710207 78:-0.709939 79:-0.709753 80:-0.709795 81:-0.709757 82:-0.709608 83:-0.709353 84:-0.709844 85:-0.709656 86:-0.709658 87:-0.709566 88:-0.709428 89:-0.709373 90:-0.709187 91:-0.709138 92:-0.708993 93:-0.708758 94:-0.70863 95:-0.708516 96:-0.708368 97:-0.708266 98:-0.708127 99:-0.707907 100:-0.70788 101:-0.707682 102:-0.707796 103:-0.707898 104:-0.707744 
0 0.04286273807856267 0.08068795425786458 0.07961390896383856 0 0.1196202032044036 0.1991929018857829 0 2.37664840296286 1:-0.500995 2:-0.486979 3:-0.413232 4:-0.604719 5:-0.606161 6:-0.616725 7:-0.612052 8:-0.609809 9:-0.644405 10:-0.645267 11:-0.638073 12:-0.631919 13:-0.631749 14:-0.634352 15:-0.642645 16:-0.640879 17:-0.63614 18:-0.634311 19:-0.629671 20:-0.627116 21:-0.626114 22:-0.625861 23:-0.62492 24:-0.624274 25:-0.622909 26:-0.623816 27:-0.62263 28:-0.621265 29:-0.620263 30:-0.619436 31:-0.618923 32:-0.618329 33:-0.617185 34:-0.617492 35:-0.616985 36:-0.616857 37:-0.616498 38:-0.615836 39:-0.615851 40:-0.61676 41:-0.616052 42:-0.615471 43:-0.615466 44:-0.614928 45:-0.614979 46:-0.614882 47:-0.616029 48:-0.616106 49:-0.615944 50:-0.61546 51:-0.615028 52:-0.615737 53:-0.615565 54:-0.61536 55:-0.616091 56:-0.615718 57:-0.616072 58:-0.615879 59:-0.616156 60:-0.615788 61:-0.616279 62:-0.615882 63:-0.615642 64:-0.615394 65:-0.615097 66:-0.615221 67:-0.615501 68:-0.615443 69:-0.615303 70:-0.614922 71:-0.61498 72:-0.614757 73:-0.614498 74:-0.614391 75:-0.614273 76:-0.614734 77:-0.614846 78:-0.614617 79:-0.614604 80:-0.614465 81:-0.614157 82:-0.614004 83:-0.613759 84:-0.613536 85:-0.613366 86:-0.613198 87:-0.613207 88:-0.612992 89:-0.61275 90:-0.612597 91:-0.612407 92:-0.612455 93:-0.612346 94:-0.612178 95:-0.612125 96:-0.611963 97:-0.611854 98:-0.611769 99:-0.611656 100:-0.611548 101:-0.611452 102:-0.611592 103:-0.611353 104:-0.611534 
0 0 11.06113353356409 0 0 0 5.286523623362745 0 0 1:-0.830439 2:-0.670573 3:-0.635794 4:-0.871802 5:-0.861343 6:-0.883591 7:-0.876359 8:-0.871466 9:-0.868679 10:-0.866895 11:-0.866128 12:-0.865778 13:-0.865667 14:-0.874037 15:-0.873645 16:-0.872378 17:-0.872244 18:-0.881684 19:-0.881249 20:-0.87946 21:-0.881867 22:-0.881353 23:-0.880455 24:-0.879069 25:-0.878487 26:-0.877859 27:-0.87732 28:-0.880961 29:-0.880402 30:-0.880371 31:-0.87942 32:-0.880918 33:-0.880444 34:-0.880071 35:-0.880499 36:-0.879727 37:-0.880504 38:-0.88007 39:-0.879791 40:-0.879655 41:-0.879173 42:-0.878812 43:-0.878463 44:-0.878139 45:-0.877746 46:-0.877207 47:-0.877138 48:-0.876625 49:-0.876391 50:-0.875905 51:-0.875928 52:-0.87544 53:-0.875474 54:-0.875159 55:-0.874784 56:-0.87441 57:-0.87442 58:-0.874257 59:-0.873986 60:-0.873648 61:-0.873709 62:-0.873379 63:-0.873373 64:-0.873079 65:-0.873074 66:-0.874443 67:-0.874497 68:-0.874374 69:-0.875452 70:-0.87569 71:-0.875723 72:-0.875565 73:-0.875579 74:-0.875288 75:-0.874994 76:-0.875331 77:-0.8752 78:-0.875999 79:-0.875694 80:-0.875668 81:-0.875617 82:-0.876731 83:-0.876991 84:-0.876851 85:-0.876724 86:-0.876578 87:-0.876462 88:-0.877153 89:-0.877083 90:-0.877087 91:-0.87697 92:-0.877309 93:-0.877664 94:-0.877415 95:-0.877292 96:-0.877557 97:-0.878288 98:-0.878505 99:-0.878492 100:-0.878244 101:-0.878852 102:-0.879058 103:-0.879352 104:-0.880204 
10.14969643573426 0 0 0 0 0 0.104272211113715 0 0 1:-0.870437 2:-0.666667 3:-0.647405 4:-0.870604 5:-0.858312 6:-0.874528 7:-0.869885 8:-0.866388 9:-0.862538 10:-0.862864 11:-0.862886 12:-0.863148 13:-0.863491 14:-0.865074 15:-0.865308 16:-0.871122 17:-0.878241 18:-0.885609 19:-0.888131 20:-0.888201 21:-0.887191 22:-0.886455 23:-0.885363 24:-0.883687 25:-0.883169 26:-0.882493 27:-0.881607 28:-0.881113 29:-0.88005 30:-0.881908 31:-0.881347 32:-0.881152 33:-0.881492 34:-0.881006 35:-0.88027 36:-0.87984 37:-0.879043 38:-0.878622 39:-0.878867 40:-0.879015 41:-0.878797 42:-0.87812 43:-0.877939 44:-0.877655 45:-0.877424 46:-0.877147 47:-0.876791 48:-0.876895 49:-0.876659 50:-0.876934 51:-0.876533 52:-0.876256 53:-0.875828 54:-0.87556 55:-0.875387 56:-0.874984 57:-0.875398 58:-0.875502 59:-0.875505 60:-0.875472 61:-0.875349 62:-0.875519 63:-0.875245 64:-0.87603 65:-0.87586 66:-0.875663 67:-0.87701 68:-0.876726 69:-0.876563 70:-0.877162 71:-0.877569 72:-0.87783 73:-0.878263 74:-0.878073 75:-0.87789 76:-0.877563 77:-0.878818 78:-0.878625 79:-0.878687 80:-0.878572 81:-0.878439 82:-0.878662 83:-0.878492 84:-0.878335 85:-0.878705 86:-0.878999 87:-0.87961 88:-0.879491 89:-0.879467 90:-0.879453 91:-0.87927 92:-0.879023 93:-0.878898 94:-0.878977 95:-0.878752 96:-0.878536 97:-0.879229 98:-0.879338 99:-0.879113 100:-0.879016 101:-0.878772 102:-0.878748 103:-0.87858 104:-0.878548 
0 0 8.670940060285405 0.006707056966027173 0 0 0 0 0 1:-0.871512 2:-0.670573 3:-0.629612 4:-0.847825 5:-0.85576 6:-0.852103 7:-0.854968 8:-0.847889 9:-0.845072 10:-0.844227 11:-0.843626 12:-0.843249 13:-0.844396 14:-0.846523 15:-0.852794 16:-0.863362 17:-0.864935 18:-0.863539 19:-0.861779 20:-0.860351 21:-0.859087 22:-0.858119 23:-0.857445 24:-0.857106 25:-0.856258 26:-0.856772 27:-0.858195 28:-0.857284 29:-0.858017 30:-0.859359 31:-0.860421 32:-0.860109 33:-0.859494 34:-0.858471 35:-0.858652 36:-0.858034 37:-0.858247 38:-0.857391 39:-0.856918 40:-0.856391 41:-0.856235 42:-0.855518 43:-0.855131 44:-0.855055 45:-0.854908 46:-0.854593 47:-0.853949 48:-0.853897 49:-0.85361 50:-0.854026 51:-0.853749 52:-0.853595 53:-0.853096 54:-0.853078 55:-0.85265 56:-0.852442 57:-0.852357 58:-0.852141 59:-0.852488 60:-0.8525 61:-0.852371 62:-0.852771 63:-0.852594 64:-0.852424 65:-0.852047 66:-0.85202 67:-0.852099 68:-0.851756 69:-0.851742 70:-0.851591 71:-0.851433 72:-0.851621 73:-0.851565 74:-0.851426 75:-0.851277 76:-0.85136 77:-0.85137 78:-0.851066 79:-0.851059 80:-0.850971 81:-0.851019 82:-0.850737 83:-0.850762 84:-0.852205 85:-0.852076 86:-0.851984 87:-0.851866 88:-0.851598 89:-0.8518 90:-0.851726 91:-0.852629 92:-0.853256 93:-0.854126 94:-0.854437 95:-0.854292 96:-0.85443 97:-0.854358 98:-0.854221 99:-0.854767 100:-0.854554 101:-0.854409 102:-0.854496 103:-0.855454 104:-0.855591 
0 0 1.701696014143061 0.1269831021959214 0 0 0 0 1.975216158458304 1:-0.716252 2:-0.652344 3:-0.582125 4:-0.791576 5:-0.807397 6:-0.797834 7:-0.789869 8:-0.784991 9:-0.782426 10:-0.783786 11:-0.782609 12:-0.799705 13:-0.816101 14:-0.821414 15:-0.821176 16:-0.818708 17:-0.817055 18:-0.814219 19:-0.811031 20:-0.808248 21:-0.80958 22:-0.808041 23:-0.810963 24:-0.809686 25:-0.808764 26:-0.807571 27:-0.806398 28:-0.805698 29:-0.804773 30:-0.803901 31:-0.803499 32:-0.802688 33:-0.802006 34:-0.803811 35:-0.802702 36:-0.802099 37:-0.801112 38:-0.800174 39:-0.801633 40:-0.800635 41:-0.800409 42:-0.799591 43:-0.799482 44:-0.800289 45:-0.799574 46:-0.798881 47:-0.798892 48:-0.798963 49:-0.798309 50:-0.798182 51:-0.798319 52:-0.798146 53:-0.798626 54:-0.798275 55:-0.797758 56:-0.797586 57:-0.797633 58:-0.797114 59:-0.796804 60:-0.796699 61:-0.796223 62:-0.796705 63:-0.796859 64:-0.796988 65:-0.796914 66:-0.796494 67:-0.79645 68:-0.796391 69:-0.796279 70:-0.796306 71:-0.796086 72:-0.795871 73:-0.795982 74:-0.795822 75:-0.796054 76:-0.796086 77:-0.796492 78:-0.796432 79:-0.796204 80:-0.79596 81:-0.795969 82:-0.795921 83:-0.796033 84:-0.795819 85:-0.795651 86:-0.795577 87:-0.795424 88:-0.795252 89:-0.794976 90:-0.795481 91:-0.795346 92:-0.795211 93:-0.796292 94:-0.796137 95:-0.796415 96:-0.797296 97:-0.798352 98:-0.798179 99:-0.79837 100:-0.798521 101:-0.798337 102:-0.798845 103:-0.798702 104:-0.79903 
0 0 5.038305605167161 0.0824272840824041 0 0 2.121937420566878 0 2.725175289753397 1:-0.795495 2:-0.602865 3:-0.561649 4:-0.776744 5:-0.781077 6:-0.779069 7:-0.771472 8:-0.772824 9:-0.772373 10:-0.772853 11:-0.775309 12:-0.784817 13:-0.804643 14:-0.80031 15:-0.80199 16:-0.799066 17:-0.798636 18:-0.796551 19:-0.794163 20:-0.796718 21:-0.796469 22:-0.795415 23:-0.793706 24:-0.792706 25:-0.794267 26:-0.793354 27:-0.793592 28:-0.792714 29:-0.79319 30:-0.792361 31:-0.791533 32:-0.791198 33:-0.79036 34:-0.789485 35:-0.788749 36:-0.788447 37:-0.78793 38:-0.787311 39:-0.786607 40:-0.786795 41:-0.787685 42:-0.787084 43:-0.786807 44:-0.786333 45:-0.78585 46:-0.786072 47:-0.785462 48:-0.784999 49:-0.78469 50:-0.784356 51:-0.783956 52:-0.783497 53:-0.783165 54:-0.783033 55:-0.782759 56:-0.782885 57:-0.783225 58:-0.783052 59:-0.783333 60:-0.784293 61:-0.784157 62:-0.784108 63:-0.78373 64:-0.78345 65:-0.783293 66:-0.783019 67:-0.783297 68:-0.783205 69:-0.783269 70:-0.783302 71:-0.783037 72:-0.782774 73:-0.783184 74:-0.783106 75:-0.782907 76:-0.782796 77:-0.783339 78:-0.783306 79:-0.783038 80:-0.783196 81:-0.782741 82:-0.784049 83:-0.78373 84:-0.783775 85:-0.78448 86:-0.784384 87:-0.784274 88:-0.784256 89:-0.784804 90:-0.785582 91:-0.786416 92:-0.786082 93:-0.785879 94:-0.785662 95:-0.785386 96:-0.78544 97:-0.78525 98:-0.785047 99:-0.784879 100:-0.78475 101:-0.784637 102:-0.784391 103:-0.784312 104:-0.7844 
0 7.818375700248537 4.002445924160806 0 0 0 0 0 0 1:-0.876781 2:-0.579427 3:-0.652873 4:-0.904304 5:-0.898989 6:-0.919803 7:-0.912973 8:-0.906656 9:-0.903065 10:-0.902047 11:-0.901175 12:-0.90072 13:-0.899979 14:-0.899629 15:-0.899036 16:-0.898519 17:-0.89855 18:-0.897812 19:-0.897309 20:-0.900909 21:-0.907451 22:-0.911946 23:-0.915034 24:-0.914965 25:-0.915909 26:-0.91696 27:-0.916011 28:-0.915242 29:-0.91566 30:-0.915483 31:-0.916184 32:-0.915361 33:-0.915252 34:-0.914959 35:-0.914632 36:-0.915193 37:-0.915073 38:-0.914686 39:-0.915489 40:-0.915301 41:-0.914807 42:-0.915401 43:-0.915499 44:-0.915376 45:-0.914847 46:-0.914562 47:-0.914126 48:-0.913862 49:-0.914299 50:-0.913828 51:-0.913478 52:-0.913587 53:-0.913429 54:-0.913102 55:-0.912824 56:-0.912806 57:-0.912742 58:-0.912779 59:-0.912405 60:-0.912603 61:-0.912442 62:-0.912112 63:-0.912487 64:-0.912525 65:-0.913912 66:-0.915007 67:-0.91471 68:-0.914831 69:-0.914791 70:-0.914877 71:-0.915368 72:-0.915167 73:-0.914908 74:-0.914606 75:-0.914496 76:-0.915102 77:-0.914973 78:-0.915269 79:-0.915249 80:-0.914981 81:-0.914725 82:-0.914442 83:-0.914517 84:-0.91487 85:-0.914814 86:-0.914718 87:-0.914412 88:-0.914268 89:-0.914454 90:-0.914423 91:-0.914288 92:-0.914809 93:-0.914622 94:-0.91439 95:-0.91421 96:-0.914184 97:-0.913963 98:-0.913792 99:-0.91362 100:-0.913593 101:-0.913425 102:-0.913216 103:-0.913058 104:-0.913257 
0 22.58502368424747 6.747852356153319 0 0 0 2.191729751053884 0 0 1:-0.822698 2:-0.46224 3:-0.476937 4:-0.863447 5:-0.858958 6:-0.878246 7:-0.867387 8:-0.861243 9:-0.855603 10:-0.855173 11:-0.854012 12:-0.853962 13:-0.853845 14:-0.852511 15:-0.852672 16:-0.860468 17:-0.867297 18:-0.873828 19:-0.874726 20:-0.873978 21:-0.873487 22:-0.872305 23:-0.872782 24:-0.872802 25:-0.871299 26:-0.870554 27:-0.869706 28:-0.869606 29:-0.868467 30:-0.869349 31:-0.869319 32:-0.868848 33:-0.868118 34:-0.867933 35:-0.867035 36:-0.866952 37:-0.866138 38:-0.865763 39:-0.865027 40:-0.864759 41:-0.86439 42:-0.864153 43:-0.86382 44:-0.863271 45:-0.863171 46:-0.86264 47:-0.862467 48:-0.861963 49:-0.861785 50:-0.861557 51:-0.861344 52:-0.86196 53:-0.86291 54:-0.864235 55:-0.864606 56:-0.865758 57:-0.865223 58:-0.865256 59:-0.864943 60:-0.864511 61:-0.864399 62:-0.866624 63:-0.867337 64:-0.867857 65:-0.868881 66:-0.868866 67:-0.868568 68:-0.868205 69:-0.868497 70:-0.868782 71:-0.868445 72:-0.868168 73:-0.868634 74:-0.869003 75:-0.868812 76:-0.869073 77:-0.869037 78:-0.869011 79:-0.869731 80:-0.870629 81:-0.87022 82:-0.870004 83:-0.870254 84:-0.869933 85:-0.869683 86:-0.870025 87:-0.870112 88:-0.869863 89:-0.869665 90:-0.869703 91:-0.870147 92:-0.870565 93:-0.870333 94:-0.87051 95:-0.871165 96:-0.871906 97:-0.872885 98:-0.873228 99:-0.873952 100:-0.874253 101:-0.874222 102:-0.875126 103:-0.876283 104:-0.877234 
0 2.714321979530759 3.592870408362578 0.1186953582399864 0 0 0.7277687191502258 0 0.6520052030554583 1:-0.773238 2:-0.298177 3:-0.333322 4:-0.850295 5:-0.848122 6:-0.857713 7:-0.845599 8:-0.84093 9:-0.837824 10:-0.837556 11:-0.834867 12:-0.834865 13:-0.834533 14:-0.838983 15:-0.854172 16:-0.854491 17:-0.857962 18:-0.8561 19:-0.855292 20:-0.856269 21:-0.854765 22:-0.852939 23:-0.852881 24:-0.85178 25:-0.850557 26:-0.851769 27:-0.851223 28:-0.849985 29:-0.850342 30:-0.850134 31:-0.84908 32:-0.848497 33:-0.848245 34:-0.848008 35:-0.847296 36:-0.846904 37:-0.846603 38:-0.846269 39:-0.847369 40:-0.847136 41:-0.847099 42:-0.846774 43:-0.846568 44:-0.846152 45:-0.847407 46:-0.847339 47:-0.847838 48:-0.848821 49:-0.849129 50:-0.849507 51:-0.849997 52:-0.849767 53:-0.849382 54:-0.848895 55:-0.850381 56:-0.851404 57:-0.852632 58:-0.852499 59:-0.852123 60:-0.852432 61:-0.852461 62:-0.8529 63:-0.853391 64:-0.853323 65:-0.853118 66:-0.853386 67:-0.853182 68:-0.852696 69:-0.852409 70:-0.853309 71:-0.854448 72:-0.854828 73:-0.854534 74:-0.854138 75:-0.853676 76:-0.854203 77:-0.853895 78:-0.853539 79:-0.853632 80:-0.853311 81:-0.853037 82:-0.853647 83:-0.853644 84:-0.85341 85:-0.853591 86:-0.854108 87:-0.854312 88:-0.854368 89:-0.854105 90:-0.854886 91:-0.855667 92:-0.855777 93:-0.855705 94:-0.856327 95:-0.856785 96:-0.856697 97:-0.857674 98:-0.858604 99:-0.858655 100:-0.860007 101:-0.861691 102:-0.86436 103:-0.866904 104:-0.86875 
0 5.744093871995031 9.7386804160359 0.2556117739776191 0 0 1.845122090357437 0 0.7540502326808241 1:-0.825708 2:-0.356771 3:-0.33201 4:-0.870088 5:-0.86675 6:-0.879602 7:-0.869568 8:-0.862821 9:-0.860073 10:-0.858376 11:-0.857666 12:-0.856779 13:-0.85678 14:-0.856269 15:-0.855173 16:-0.862373 17:-0.863702 18:-0.874015 19:-0.874325 20:-0.873414 21:-0.872122 22:-0.870832 23:-0.869952 24:-0.873092 25:-0.873019 26:-0.872701 27:-0.872004 28:-0.871229 29:-0.870434 30:-0.871213 31:-0.870562 32:-0.870577 33:-0.87032 34:-0.870124 35:-0.869469 36:-0.869013 37:-0.868538 38:-0.868264 39:-0.867804 40:-0.867355 41:-0.867381 42:-0.867413 43:-0.869752 44:-0.870639 45:-0.870786 46:-0.871085 47:-0.871155 48:-0.871072 49:-0.870703 50:-0.870567 51:-0.871254 52:-0.873238 53:-0.873528 54:-0.873274 55:-0.873591 56:-0.873217 57:-0.872782 58:-0.87319 59:-0.874375 60:-0.874009 61:-0.873642 62:-0.873716 63:-0.873875 64:-0.873629 65:-0.873185 66:-0.874089 67:-0.874448 68:-0.875821 69:-0.87629 70:-0.875953 71:-0.875677 72:-0.875536 73:-0.875148 74:-0.874847 75:-0.874381 76:-0.874382 77:-0.874079 78:-0.874101 79:-0.874051 80:-0.874604 81:-0.874997 82:-0.874963 83:-0.874861 84:-0.875183 85:-0.875668 86:-0.875451 87:-0.876934 88:-0.87823 89:-0.878116 90:-0.877986 91:-0.87799 92:-0.878563 93:-0.879141 94:-0.878963 95:-0.878872 96:-0.878574 97:-0.878211 98:-0.878562 99:-0.87995 100:-0.881731 101:-0.884285 102:-0.886462 103:-0.888022 104:-0.889297 
0 0 25.06834197420908 0 0 17.09640335973166 4.446605409197986 7.39144583422083 0.09993699017200208 1:-0.865599 2:-0.634115 3:-0.616142 4:-0.854912 5:-0.854938 6:-0.866331 7:-0.88092 8:-0.875947 9:-0.866555 10:-0.861201 11:-0.861197 12:-0.857969 13:-0.85695 14:-0.857596 15:-0.856718 16:-0.865008 17:-0.866874 18:-0.868013 19:-0.866095 20:-0.8641 21:-0.863416 22:-0.865694 23:-0.866982 24:-0.867347 25:-0.865784 26:-0.867229 27:-0.866864 28:-0.865934 29:-0.865775 30:-0.866691 31:-0.866001 32:-0.865486 33:-0.86492 34:-0.86448 35:-0.863942 36:-0.863848 37:-0.863568 38:-0.862757 39:-0.862521 40:-0.862031 41:-0.861631 42:-0.860952 43:-0.860745 44:-0.860411 45:-0.859845 46:-0.859887 47:-0.859473 48:-0.858949 49:-0.858446 50:-0.858458 51:-0.858232 52:-0.858028 53:-0.857671 54:-0.857469 55:-0.857131 56:-0.856747 57:-0.856806 58:-0.856586 59:-0.857344 60:-0.858486 61:-0.859438 62:-0.859509 63:-0.859214 64:-0.859231 65:-0.859199 66:-0.859671 67:-0.85952 68:-0.860699 69:-0.862037 70:-0.862247 71:-0.863234 72:-0.863011 73:-0.862616 74:-0.862633 75:-0.862346 76:-0.862126 77:-0.861914 78:-0.86242 79:-0.862404 80:-0.862101 81:-0.862582 82:-0.863381 83:-0.863885 84:-0.864222 85:-0.863886 86:-0.86369 87:-0.864047 88:-0.863824 89:-0.863517 90:-0.863843 91:-0.864532 92:-0.864203 93:-0.864199 94:-0.864191 95:-0.864114 96:-0.863944 97:-0.863776 98:-0.863489 99:-0.863443 100:-0.863282 101:-0.863159 102:-0.862884 103:-0.862662 104:-0.863413 
0 0 0 9.818482726019035 250.4279062272585 29.90134054459801 70.02155763039836 8.421203263449671 0 1:-0.921402 2:-0.760417 3:-0.790476 4:-0.924095 5:-0.910045 6:-0.925473 7:-0.935377 8:-0.930143 9:-0.926191 10:-0.924788 11:-0.92299 12:-0.92183 13:-0.923384 14:-0.922326 15:-0.92252 16:-0.921783 17:-0.920978 18:-0.920465 19:-0.920131 20:-0.920938 21:-0.920753 22:-0.920417 23:-0.920734 24:-0.921395 25:-0.923586 26:-0.923609 27:-0.92337 28:-0.922978 29:-0.923119 30:-0.925139 31:-0.92637 32:-0.926262 33:-0.92627 34:-0.926447 35:-0.926746 36:-0.927514 37:-0.92749 38:-0.928509 39:-0.929641 40:-0.929851 41:-0.929831 42:-0.92962 43:-0.929801 44:-0.929505 45:-0.929138 46:-0.928914 47:-0.930301 48:-0.93004 49:-0.930191 50:-0.930608 51:-0.93129 52:-0.930899 53:-0.93098 54:-0.931178 55:-0.930952 56:-0.930638 57:-0.930297 58:-0.930149 59:-0.930048 60:-0.929767 61:-0.929482 62:-0.929331 63:-0.929912 64:-0.930254 65:-0.930133 66:-0.929891 67:-0.929722 68:-0.929485 69:-0.929465 70:-0.929241 71:-0.92902 72:-0.928974 73:-0.928751 74:-0.928548 75:-0.928563 76:-0.928348 77:-0.928328 78:-0.92825 79:-0.928108 80:-0.928234 81:-0.92842 82:-0.928287 83:-0.928907 84:-0.928945 85:-0.928766 86:-0.92886 87:-0.928744 88:-0.928569 89:-0.928726 90:-0.928555 91:-0.928652 92:-0.928586 93:-0.928427 94:-0.928272 95:-0.928269 96:-0.928119 97:-0.928069 98:-0.92792 99:-0.92777 100:-0.92823 101:-0.928357 102:-0.928567 103:-0.928646 104:-0.928833 
0 0 0 0 0 0 16.76017994487214 72.18519675988448 10.69288651793531 1:-0.913553 2:-0.792969 3:-0.780909 4:-0.901036 5:-0.894193 6:-0.910083 7:-0.912385 8:-0.906562 9:-0.904163 10:-0.901588 11:-0.901309 12:-0.90238 13:-0.90187 14:-0.90097 15:-0.900564 16:-0.90052 17:-0.899502 18:-0.899603 19:-0.898449 20:-0.898569 21:-0.898387 22:-0.898603 23:-0.898185 24:-0.900962 25:-0.904613 26:-0.904848 27:-0.904371 28:-0.905251 29:-0.908065 30:-0.907741 31:-0.907538 32:-0.907715 33:-0.907169 34:-0.907355 35:-0.907166 36:-0.907476 37:-0.906941 38:-0.907453 39:-0.907275 40:-0.907052 41:-0.90688 42:-0.90672 43:-0.906717 44:-0.906569 45:-0.906495 46:-0.906113 47:-0.905953 48:-0.905642 49:-0.90555 50:-0.905738 51:-0.905639 52:-0.906235 53:-0.906064 54:-0.906598 55:-0.906766 56:-0.906454 57:-0.906756 58:-0.906533 59:-0.906422 60:-0.906133 61:-0.906297 62:-0.906222 63:-0.905986 64:-0.905937 65:-0.906562 66:-0.906742 67:-0.907053 68:-0.906864 69:-0.906792 70:-0.906546 71:-0.906879 72:-0.907923 73:-0.90772 74:-0.907638 75:-0.907548 76:-0.907447 77:-0.907431 78:-0.90734 79:-0.907381 80:-0.907175 81:-0.907065 82:-0.906866 83:-0.906795 84:-0.90658 85:-0.90638 86:-0.906373 87:-0.906184 88:-0.906126 89:-0.906352 90:-0.906194 91:-0.906148 92:-0.905958 93:-0.905906 94:-0.905862 95:-0.905764 96:-0.905596 97:-0.905554 98:-0.90539 99:-0.905342 100:-0.9053 101:-0.905254 102:-0.905135 103:-0.904979 104:-0.905292 
0 0 0 0 0 0 34.70874839549122 0 0 1:-0.856567 2:-0.778646 3:-0.766405 4:-0.888378 5:-0.886996 6:-0.912091 7:-0.906071 8:-0.898266 9:-0.895214 10:-0.892173 11:-0.891587 12:-0.889598 13:-0.889754 14:-0.888242 15:-0.888406 16:-0.888323 17:-0.887081 18:-0.88676 19:-0.88705 20:-0.886842 21:-0.886653 22:-0.889184 23:-0.894808 24:-0.894822 25:-0.89499 26:-0.896846 27:-0.896933 28:-0.896414 29:-0.896571 30:-0.897152 31:-0.897882 32:-0.897106 33:-0.89674 34:-0.896431 35:-0.895781 36:-0.895421 37:-0.895189 38:-0.894626 39:-0.894686 40:-0.894108 41:-0.893608 42:-0.89344 43:-0.893331 44:-0.89381 45:-0.893399 46:-0.89334 47:-0.892992 48:-0.892615 49:-0.893597 50:-0.893928 51:-0.895171 52:-0.895259 53:-0.894861 54:-0.894481 55:-0.894376 56:-0.894545 57:-0.894396 58:-0.895149 59:-0.895643 60:-0.896343 61:-0.896495 62:-0.896463 63:-0.897416 64:-0.897081 65:-0.896815 66:-0.896682 67:-0.896551 68:-0.896423 69:-0.896126 70:-0.896059 71:-0.895769 72:-0.895656 73:-0.895534 74:-0.895433 75:-0.895311 76:-0.895031 77:-0.894918 78:-0.894658 79:-0.894549 80:-0.894392 81:-0.894268 82:-0.894178 83:-0.894097 84:-0.893998 85:-0.893928 86:-0.89374 87:-0.893679 88:-0.893471 89:-0.893417 90:-0.893217 91:-0.893135 92:-0.893068 93:-0.893061 94:-0.892932 95:-0.892878 96:-0.892704 97:-0.8927 98:-0.892528 99:-0.892475 100:-0.892425 101:-0.892253 102:-0.892408 103:-0.892244 104:-0.8927 
18.44398972252996 0 0 0 0 0 0 47.08528908341522 0 1:-0.900005 2:-0.777344 3:-0.765346 4:-0.882543 5:-0.873605 6:-0.902844 7:-0.89338 8:-0.888346 9:-0.883569 10:-0.883506 11:-0.882972 12:-0.88159 13:-0.881724 14:-0.880631 15:-0.881804 16:-0.881765 17:-0.880605 18:-0.883686 19:-0.882194 20:-0.88135 21:-0.883589 22:-0.887373 23:-0.886751 24:-0.88877 25:-0.890814 26:-0.891155 27:-0.891732 28:-0.890832 29:-0.890288 30:-0.890879 31:-0.892153 32:-0.891365 33:-0.891071 34:-0.89112 35:-0.890445 36:-0.889851 37:-0.890245 38:-0.890179 39:-0.889935 40:-0.889318 41:-0.888783 42:-0.888927 43:-0.888727 44:-0.888538 45:-0.888703 46:-0.888863 47:-0.888368 48:-0.888637 49:-0.888785 50:-0.888744 51:-0.888442 52:-0.888263 53:-0.887884 54:-0.887918 55:-0.88828 56:-0.889342 57:-0.890213 58:-0.890831 59:-0.891066 60:-0.890701 61:-0.890334 62:-0.890686 63:-0.890356 64:-0.890038 65:-0.889902 66:-0.889597 67:-0.889961 68:-0.889661 69:-0.889376 70:-0.889096 71:-0.889347 72:-0.88907 73:-0.888987 74:-0.888729 75:-0.888628 76:-0.888447 77:-0.88834 78:-0.888242 79:-0.888138 80:-0.888244 81:-0.888088 82:-0.888 83:-0.887775 84:-0.887697 85:-0.88763 86:-0.887594 87:-0.887396 88:-0.887328 89:-0.88714 90:-0.887228 91:-0.887043 92:-0.887049 93:-0.886866 94:-0.886816 95:-0.886763 96:-0.88683 97:-0.886656 98:-0.886484 99:-0.886543 100:-0.886603 101:-0.886429 102:-0.886379 103:-0.886331 104:-0.886694 
45.96573311100565 0 35.51824706447473 0 0 42.14577087098101 0 95.91059041130229 20.23226460232359 1:-0.873555 2:-0.769531 3:-0.744252 4:-0.85531 5:-0.855332 6:-0.879987 7:-0.867713 8:-0.861527 9:-0.858459 10:-0.85732 11:-0.856356 12:-0.855867 13:-0.854768 14:-0.854403 15:-0.855009 16:-0.854601 17:-0.854062 18:-0.859083 19:-0.862867 20:-0.862126 21:-0.86541 22:-0.867111 23:-0.865787 24:-0.865049 25:-0.864374 26:-0.864431 27:-0.864742 28:-0.867064 29:-0.866705 30:-0.865754 31:-0.865287 32:-0.865223 33:-0.864522 34:-0.864115 35:-0.864125 36:-0.863652 37:-0.863323 38:-0.863775 39:-0.863459 40:-0.863193 41:-0.864632 42:-0.864246 43:-0.863939 44:-0.863868 45:-0.86362 46:-0.864297 47:-0.865402 48:-0.867162 49:-0.867154 50:-0.866582 51:-0.867211 52:-0.866867 53:-0.866656 54:-0.866142 55:-0.865956 56:-0.865719 57:-0.865403 58:-0.864969 59:-0.864888 60:-0.864477 61:-0.864667 62:-0.864861 63:-0.864626 64:-0.864339 65:-0.864246 66:-0.863904 67:-0.863741 68:-0.863578 69:-0.863428 70:-0.863105 71:-0.863023 72:-0.862877 73:-0.862842 74:-0.862546 75:-0.862407 76:-0.862187 77:-0.862043 78:-0.861904 79:-0.861764 80:-0.861624 81:-0.861313 82:-0.861198 83:-0.86124 84:-0.860989 85:-0.860827 86:-0.860729 87:-0.860786 88:-0.860553 89:-0.860479 90:-0.860346 91:-0.860272 92:-0.860305 93:-0.860228 94:-0.860222 95:-0.860018 96:-0.859971 97:-0.8599 98:-0.859776 99:-0.859581 100:-0.859488 101:-0.859414 102:-0.859339 103:-0.859158 104:-0.859242 
0 0 0.8168456432219893 0.003335891589713541 0 0 0.9249219815334653 0 1.841130856891281 1:-0.758938 2:-0.596354 3:-0.537952 4:-0.720459 5:-0.719301 6:-0.720857 7:-0.714276 8:-0.708631 9:-0.709172 10:-0.736697 11:-0.75606 12:-0.758341 13:-0.756546 14:-0.751239 15:-0.748224 16:-0.745453 17:-0.744691 18:-0.750706 19:-0.746404 20:-0.743629 21:-0.742553 22:-0.740862 23:-0.739653 24:-0.73778 25:-0.737041 26:-0.736778 27:-0.735424 28:-0.734716 29:-0.734069 30:-0.734337 31:-0.734161 32:-0.733325 33:-0.732864 34:-0.73297 35:-0.733214 36:-0.733597 37:-0.733122 38:-0.732446 39:-0.732016 40:-0.731012 41:-0.730639 42:-0.730296 43:-0.730056 44:-0.729745 45:-0.730223 46:-0.730341 47:-0.731079 48:-0.730771 49:-0.731397 50:-0.731347 51:-0.731326 52:-0.731213 53:-0.731403 54:-0.730898 55:-0.731131 56:-0.730713 57:-0.730581 58:-0.730131 59:-0.73047 60:-0.730675 61:-0.730413 62:-0.729984 63:-0.729809 64:-0.729968 65:-0.730378 66:-0.730216 67:-0.730195 68:-0.72997 69:-0.729838 70:-0.729671 71:-0.729731 72:-0.729536 73:-0.729402 74:-0.729545 75:-0.729273 76:-0.728981 77:-0.728645 78:-0.728517 79:-0.728439 80:-0.728589 81:-0.728377 82:-0.728087 83:-0.727929 84:-0.728089 85:-0.728117 86:-0.727848 87:-0.727612 88:-0.72773 89:-0.727543 90:-0.727264 91:-0.727225 92:-0.726968 93:-0.727073 94:-0.72698 95:-0.726758 96:-0.72674 97:-0.726792 98:-0.726631 99:-0.726418 100:-0.726856 101:-0.726886 102:-0.726677 103:-0.726562 104:-0.726951 
0 0.033785100027827 0.07354671100854242 0.06736310658763452 0 0.09820161970819151 0.1530980213980894 1.393771873649783 3.620395076018805 1:-0.7055 2:-0.528646 3:-0.480142 4:-0.672782 5:-0.703089 6:-0.68566 7:-0.669281 8:-0.686915 9:-0.679094 10:-0.694553 11:-0.697851 12:-0.698136 13:-0.71297 14:-0.710924 15:-0.709423 16:-0.706795 17:-0.70485 18:-0.701829 19:-0.697189 20:-0.694942 21:-0.693084 22:-0.692316 23:-0.690494 24:-0.688686 25:-0.687541 26:-0.686564 27:-0.686236 28:-0.684966 29:-0.684304 30:-0.68356 31:-0.683019 32:-0.6824 33:-0.681918 34:-0.681407 35:-0.680756 36:-0.680713 37:-0.680998 38:-0.680549 39:-0.680303 40:-0.679729 41:-0.679364 42:-0.679426 43:-0.679653 44:-0.679501 45:-0.679514 46:-0.679032 47:-0.678439 48:-0.678052 49:-0.677819 50:-0.677819 51:-0.678335 52:-0.677992 53:-0.678218 54:-0.677727 55:-0.677746 56:-0.677438 57:-0.677106 58:-0.677449 59:-0.677703 60:-0.678404 61:-0.67849 62:-0.678078 63:-0.678095 64:-0.67775 65:-0.677735 66:-0.678263 67:-0.678415 68:-0.678242 69:-0.678574 70:-0.67892 71:-0.678857 72:-0.678675 73:-0.678636 74:-0.678154 75:-0.67831 76:-0.678205 77:-0.678631 78:-0.678986 79:-0.678872 80:-0.678811 81:-0.678497 82:-0.678189 83:-0.67819 84:-0.678452 85:-0.678429 86:-0.678386 87:-0.678271 88:-0.678337 89:-0.678482 90:-0.678337 91:-0.678198 92:-0.678533 93:-0.678482 94:-0.678609 95:-0.678479 96:-0.67853 97:-0.678402 98:-0.67817 99:-0.678262 100:-0.678671 101:-0.678955 102:-0.678922 103:-0.679293 104:-0.679637 
0 0.02877129645470214 0.07694684898427404 0.05307044243511046 0 0.08018650059656157 0.1395078874171459 3.934927424177186 1.991859339404394 1:-0.545508 2:-0.486979 3:-0.429762 4:-0.636481 5:-0.645698 6:-0.638603 7:-0.627481 8:-0.624378 9:-0.647913 10:-0.67667 11:-0.67179 12:-0.674163 13:-0.672345 14:-0.673949 15:-0.67014 16:-0.667525 17:-0.663568 18:-0.660097 19:-0.656703 20:-0.654638 21:-0.652013 22:-0.651283 23:-0.649603 24:-0.648805 25:-0.648039 26:-0.647733 27:-0.646327 28:-0.646027 29:-0.645537 30:-0.644888 31:-0.644849 32:-0.6446 33:-0.644262 34:-0.644437 35:-0.64349 36:-0.643569 37:-0.643441 38:-0.643619 39:-0.644593 40:-0.644328 41:-0.643731 42:-0.642996 43:-0.642879 44:-0.642457 45:-0.642421 46:-0.643227 47:-0.643168 48:-0.642892 49:-0.642787 50:-0.642369 51:-0.641777 52:-0.642153 53:-0.642211 54:-0.64168 55:-0.641918 56:-0.641944 57:-0.641457 58:-0.642215 59:-0.642627 60:-0.642799 61:-0.642932 62:-0.642903 63:-0.642956 64:-0.642846 65:-0.643793 66:-0.643755 67:-0.64388 68:-0.643759 69:-0.643991 70:-0.643754 71:-0.643937 72:-0.644035 73:-0.643776 74:-0.643614 75:-0.643567 76:-0.643454 77:-0.644341 78:-0.644324 79:-0.644137 80:-0.644427 81:-0.644088 82:-0.643886 83:-0.643924 84:-0.645522 85:-0.645724 86:-0.645966 87:-0.645926 88:-0.646174 89:-0.646041 90:-0.645712 91:-0.645776 92:-0.64574 93:-0.645493 94:-0.645333 95:-0.645162 96:-0.644977 97:-0.644696 98:-0.644576 99:-0.644395 100:-0.644227 101:-0.644227 102:-0.644099 103:-0.64396 104:-0.643841 
0 0.1151474305889829 0.2512127814616372 0.217324370397614 0 0.3269222390603298 0.5485993919751653 0.1111483433114659 6.285952655256057 1:-0.663566 2:-0.485677 3:-0.395603 4:-0.593578 5:-0.600236 6:-0.598901 7:-0.583685 8:-0.597187 9:-0.63556 10:-0.628178 11:-0.635087 12:-0.629227 13:-0.631649 14:-0.626597 15:-0.624279 16:-0.620523 17:-0.617574 18:-0.615384 19:-0.611839 20:-0.611037 21:-0.610763 22:-0.609786 23:-0.60827 24:-0.609521 25:-0.60866 26:-0.60834 27:-0.607337 28:-0.606804 29:-0.606601 30:-0.606497 31:-0.605569 32:-0.605222 33:-0.604919 34:-0.605228 35:-0.605988 36:-0.604928 37:-0.603863 38:-0.603241 39:-0.602473 40:-0.603899 41:-0.604613 42:-0.604014 43:-0.603439 44:-0.60371 45:-0.602951 46:-0.603536 47:-0.6044 48:-0.604336 49:-0.603616 50:-0.603692 51:-0.60313 52:-0.602564 53:-0.603302 54:-0.603103 55:-0.604839 56:-0.604202 57:-0.60505 58:-0.604867 59:-0.604497 60:-0.604813 61:-0.604421 62:-0.604438 63:-0.604581 64:-0.604668 65:-0.604464 66:-0.604387 67:-0.60411 68:-0.603723 69:-0.603473 70:-0.60323 71:-0.602912 72:-0.602621 73:-0.60242 74:-0.602261 75:-0.601965 76:-0.601889 77:-0.602348 78:-0.602353 79:-0.602034 80:-0.602053 81:-0.601888 82:-0.602173 83:-0.602022 84:-0.602086 85:-0.601938 86:-0.601805 87:-0.601321 88:-0.601899 89:-0.601626 90:-0.601558 91:-0.601354 92:-0.601233 93:-0.601362 94:-0.601132 95:-0.600996 96:-0.600915 97:-0.600811 98:-0.600604 99:-0.600531 100:-0.60038 101:-0.600247 102:-0.600085 103:-0.599979 104:-0.600626 
0 0.1744535272239754 0.374996861006185 0.3296674585182474 0 0.4945667889263642 0.8296351546943022 0.560503133326586 1.64397057312447 1:-0.538627 2:-0.332031 3:-0.369463 4:-0.542409 5:-0.558673 6:-0.552151 7:-0.552959 8:-0.591794 9:-0.587822 10:-0.580645 11:-0.58746 12:-0.586938 13:-0.587186 14:-0.585204 15:-0.580923 16:-0.576292 17:-0.571958 18:-0.570021 19:-0.564766 20:-0.562754 21:-0.560395 22:-0.558925 23:-0.558346 24:-0.557939 25:-0.559547 26:-0.558599 27:-0.557243 28:-0.556438 29:-0.557496 30:-0.557636 31:-0.557747 32:-0.556643 33:-0.555921 34:-0.556209 35:-0.555263 36:-0.555801 37:-0.55556 38:-0.556846 39:-0.55658 40:-0.556945 41:-0.556493 42:-0.55603 43:-0.556317 44:-0.55655 45:-0.55639 46:-0.557134 47:-0.556481 48:-0.556881 49:-0.556706 50:-0.556698 51:-0.556593 52:-0.556169 53:-0.556134 54:-0.556024 55:-0.556511 56:-0.556078 57:-0.555457 58:-0.55521 59:-0.554842 60:-0.554635 61:-0.555364 62:-0.555147 63:-0.554884 64:-0.554408 65:-0.554247 66:-0.553772 67:-0.55338 68:-0.553555 69:-0.553644 70:-0.553511 71:-0.553262 72:-0.552948 73:-0.552889 74:-0.552621 75:-0.552388 76:-0.552186 77:-0.552058 78:-0.551779 79:-0.551644 80:-0.551591 81:-0.551259 82:-0.551065 83:-0.550902 84:-0.550616 85:-0.550466 86:-0.550462 87:-0.550199 88:-0.550054 89:-0.549892 90:-0.549732 91:-0.549645 92:-0.549335 93:-0.549264 94:-0.54915 95:-0.54907 96:-0.548953 97:-0.548784 98:-0.54868 99:-0.54865 100:-0.548582 101:-0.548511 102:-0.548442 103:-0.548292 104:-0.548563 
-0 0 0 0 0.09040415954475386 11.37008088779395 1.464895468802736 0 0 1:-0.886995 2:-0.782552 3:-0.780526 4:-0.871294 5:-0.866503 6:-0.894698 7:-0.886277 8:-0.877738 9:-0.874664 10:-0.873842 11:-0.871396 12:-0.871213 13:-0.86997 14:-0.869884 15:-0.869972 16:-0.869995 17:-0.870919 18:-0.870691 19:-0.870193 20:-0.877572 21:-0.876381 22:-0.880189 23:-0.879728 24:-0.878614 25:-0.878384 26:-0.878083 27:-0.877233 28:-0.876965 29:-0.876819 30:-0.876166 31:-0.875976 32:-0.875695 33:-0.87548 34:-0.87492 35:-0.874786 36:-0.874842 37:-0.874974 38:-0.874841 39:-0.87505 40:-0.875803 41:-0.875648 42:-0.875584 43:-0.875522 44:-0.875708 45:-0.875606 46:-0.875779 47:-0.87593 48:-0.876733 49:-0.87659 50:-0.8765 51:-0.876373 52:-0.875972 53:-0.875945 54:-0.875832 55:-0.875535 56:-0.875457 57:-0.875682 58:-0.875369 59:-0.875304 60:-0.875231 61:-0.875846 62:-0.87616 63:-0.87589 64:-0.876007 65:-0.875839 66:-0.876096 67:-0.876366 68:-0.876943 69:-0.876685 70:-0.876568 71:-0.876486 72:-0.876235 73:-0.876272 74:-0.876038 75:-0.87596 76:-0.875867 77:-0.875935 78:-0.8757 79:-0.875522 80:-0.875522 81:-0.875415 82:-0.875287 83:-0.875229 84:-0.87511 85:-0.874921 86:-0.874951 87:-0.874774 88:-0.874803 89:-0.874635 90:-0.874666 91:-0.874499 92:-0.874448 93:-0.874358 94:-0.874325 95:-0.874286 96:-0.874128 97:-0.874119 98:-0.874012 99:-0.874046 100:-0.873939 101:-0.874269 102:-0.874457 103:-0.874392 104:-0.8745 
-0 0 0 0 0.057751214611641 0 1.484733863102484 0 0 1:-0.838288 2:-0.753906 3:-0.776666 4:-0.870618 5:-0.867659 6:-0.890642 7:-0.882486 8:-0.877053 9:-0.873941 10:-0.874222 11:-0.873575 12:-0.872169 13:-0.871239 14:-0.870697 15:-0.87039 16:-0.870492 17:-0.8699 18:-0.872172 19:-0.874347 20:-0.874823 21:-0.874682 22:-0.877532 23:-0.879406 24:-0.878497 25:-0.877894 26:-0.877584 27:-0.876798 28:-0.876705 29:-0.876921 30:-0.877165 31:-0.876988 32:-0.876965 33:-0.877161 34:-0.877171 35:-0.87707 36:-0.876958 37:-0.876669 38:-0.876121 39:-0.875871 40:-0.87569 41:-0.875516 42:-0.875881 43:-0.876497 44:-0.876318 45:-0.875951 46:-0.875977 47:-0.876641 48:-0.876435 49:-0.876289 50:-0.876386 51:-0.876424 52:-0.876372 53:-0.876101 54:-0.876012 55:-0.875921 56:-0.875899 57:-0.875777 58:-0.875615 59:-0.875282 60:-0.875152 61:-0.87509 62:-0.875801 63:-0.875718 64:-0.876112 65:-0.876077 66:-0.875989 67:-0.87612 68:-0.87648 69:-0.876633 70:-0.876843 71:-0.87664 72:-0.876576 73:-0.876436 74:-0.876187 75:-0.876126 76:-0.876022 77:-0.875794 78:-0.875705 79:-0.875599 80:-0.875407 81:-0.875319 82:-0.875267 83:-0.875111 84:-0.875186 85:-0.875093 86:-0.874997 87:-0.874973 88:-0.874828 89:-0.874784 90:-0.874747 91:-0.874747 92:-0.874656 93:-0.874626 94:-0.87451 95:-0.874336 96:-0.874317 97:-0.874247 98:-0.874247 99:-0.874106 100:-0.874038 101:-0.873965 102:-0.87392 103:-0.873785 104:-0.873938 
-0 0 0 0 0 0 0 2.038478709341062 0 1:-0.856997 2:-0.766927 3:-0.7666 4:-0.868672 5:-0.851677 6:-0.890664 7:-0.880089 8:-0.872257 9:-0.869608 10:-0.869103 11:-0.867873 12:-0.867784 13:-0.866569 14:-0.867828 15:-0.867992 16:-0.86791 17:-0.874104 18:-0.874417 19:-0.873316 20:-0.873482 21:-0.872341 22:-0.872765 23:-0.87499 24:-0.874642 25:-0.874121 26:-0.873871 27:-0.873571 28:-0.872839 29:-0.87368 30:-0.873025 31:-0.872872 32:-0.872677 33:-0.87414 34:-0.874337 35:-0.873743 36:-0.873594 37:-0.873057 38:-0.872886 39:-0.872835 40:-0.872671 41:-0.872202 42:-0.872986 43:-0.874246 44:-0.874833 45:-0.87504 46:-0.875124 47:-0.874715 48:-0.874394 49:-0.874241 50:-0.875054 51:-0.875177 52:-0.874974 53:-0.874842 54:-0.874688 55:-0.874576 56:-0.8744 57:-0.874002 58:-0.874087 59:-0.87405 60:-0.873736 61:-0.874004 62:-0.874671 63:-0.874373 64:-0.874085 65:-0.873788 66:-0.873884 67:-0.874062 68:-0.874798 69:-0.875207 70:-0.875403 71:-0.875186 72:-0.875041 73:-0.874923 74:-0.874693 75:-0.87462 76:-0.874471 77:-0.874359 78:-0.874345 79:-0.874229 80:-0.874175 81:-0.874038 82:-0.873975 83:-0.873894 84:-0.873694 85:-0.873652 86:-0.873436 87:-0.873402 88:-0.873356 89:-0.873167 90:-0.873072 91:-0.873044 92:-0.872972 93:-0.872863 94:-0.872684 95:-0.872653 96:-0.872676 97:-0.872625 98:-0.872569 99:-0.872393 100:-0.872365 101:-0.872309 102:-0.872163 103:-0.872183 104:-0.872283 
-0 0 0 0 0 0 0 0 4.559071562459603 1:-0.87334 2:-0.78776 3:-0.781968 4:-0.868459 5:-0.86349 6:-0.89067 7:-0.881764 8:-0.875977 9:-0.873147 10:-0.87127 11:-0.870468 12:-0.86948 13:-0.869239 14:-0.867916 15:-0.868327 16:-0.867952 17:-0.867847 18:-0.867915 19:-0.867379 20:-0.874767 21:-0.875194 22:-0.874825 23:-0.876567 24:-0.876048 25:-0.87559 26:-0.874757 27:-0.8747 28:-0.873934 29:-0.873733 30:-0.873089 31:-0.873337 32:-0.872778 33:-0.872651 34:-0.872089 35:-0.872326 36:-0.872055 37:-0.871576 38:-0.872169 39:-0.872042 40:-0.871528 41:-0.871411 42:-0.872145 43:-0.873432 44:-0.873143 45:-0.873189 46:-0.874162 47:-0.873945 48:-0.874002 49:-0.873813 50:-0.874097 51:-0.873715 52:-0.873309 53:-0.873374 54:-0.873256 55:-0.873179 56:-0.873199 57:-0.87283 58:-0.872729 59:-0.87257 60:-0.8727 61:-0.87295 62:-0.873509 63:-0.873659 64:-0.873581 65:-0.873582 66:-0.873607 67:-0.873527 68:-0.87425 69:-0.874159 70:-0.873899 71:-0.873813 72:-0.873789 73:-0.873528 74:-0.873456 75:-0.873374 76:-0.87323 77:-0.873177 78:-0.87328 79:-0.873061 80:-0.872876 81:-0.872765 82:-0.872695 83:-0.872711 84:-0.872503 85:-0.872536 86:-0.872394 87:-0.872489 88:-0.872395 89:-0.872356 90:-0.872302 91:-0.872261 92:-0.87219 93:-0.87212 94:-0.872105 95:-0.871934 96:-0.871895 97:-0.871856 98:-0.871784 99:-0.871619 100:-0.871461 101:-0.871418 102:-0.871511 103:-0.871473 104:-0.871512 
-0 0 0 0 0 0 0 15.99195347193102 0 1:-0.873663 2:-0.757812 3:-0.753522 4:-0.868384 5:-0.850622 6:-0.893989 7:-0.885374 8:-0.876022 9:-0.87336 10:-0.872075 11:-0.869302 12:-0.86943 13:-0.867938 14:-0.86648 15:-0.865457 16:-0.86747 17:-0.868292 18:-0.867303 19:-0.869232 20:-0.876777 21:-0.875785 22:-0.87532 23:-0.87491 24:-0.875584 25:-0.875651 26:-0.875293 27:-0.874897 28:-0.874671 29:-0.873932 30:-0.873684 31:-0.873438 32:-0.872781 33:-0.872887 34:-0.873294 35:-0.873047 36:-0.872896 37:-0.872357 38:-0.872307 39:-0.872144 40:-0.871895 41:-0.87176 42:-0.873008 43:-0.873776 44:-0.87354 45:-0.873112 46:-0.87325 47:-0.873153 48:-0.873009 49:-0.872613 50:-0.872466 51:-0.872341 52:-0.871941 53:-0.871825 54:-0.871947 55:-0.872692 56:-0.872441 57:-0.872324 58:-0.87338 59:-0.873144 60:-0.872915 61:-0.873203 62:-0.873114 63:-0.873023 64:-0.873628 65:-0.873326 66:-0.873701 67:-0.874342 68:-0.875093 69:-0.875487 70:-0.875364 71:-0.875112 72:-0.875074 73:-0.875163 74:-0.874953 75:-0.874994 76:-0.874702 77:-0.874787 78:-0.874514 79:-0.874391 80:-0.874383 81:-0.874148 82:-0.874016 83:-0.873924 84:-0.873915 85:-0.873833 86:-0.873765 87:-0.873692 88:-0.873605 89:-0.873403 90:-0.873402 91:-0.873309 92:-0.873096 93:-0.873055 94:-0.872992 95:-0.872823 96:-0.872763 97:-0.872698 98:-0.872613 99:-0.872427 100:-0.872344 101:-0.872303 102:-0.872243 103:-0.872183 104:-0.872452 
-0 0 1.844448958133053 0 0.02281955639760999 55.0149134001063 0 0 17.39259670528552 1:-0.835385 2:-0.78776 3:-0.772844 4:-0.868042 5:-0.874675 6:-0.893397 7:-0.882557 8:-0.875185 9:-0.872355 10:-0.873547 11:-0.87195 12:-0.871532 13:-0.873842 14:-0.880836 15:-0.879562 16:-0.877949 17:-0.875859 18:-0.875322 19:-0.874135 20:-0.874321 21:-0.873958 22:-0.872967 23:-0.87393 24:-0.872987 25:-0.872639 26:-0.872438 27:-0.872183 28:-0.871748 29:-0.871142 30:-0.87057 31:-0.870884 32:-0.870636 33:-0.870558 34:-0.870041 35:-0.87032 36:-0.870278 37:-0.871545 38:-0.871066 39:-0.871332 40:-0.871246 41:-0.871886 42:-0.87355 43:-0.873714 44:-0.873246 45:-0.873677 46:-0.873441 47:-0.87422 48:-0.873797 49:-0.873392 50:-0.872994 51:-0.872701 52:-0.872867 53:-0.872504 54:-0.872388 55:-0.872088 56:-0.872247 57:-0.872685 58:-0.872359 59:-0.872407 60:-0.872197 61:-0.871897 62:-0.872739 63:-0.872466 64:-0.872587 65:-0.872545 66:-0.872284 67:-0.873162 68:-0.873316 69:-0.873811 70:-0.873615 71:-0.873522 72:-0.873816 73:-0.873609 74:-0.873525 75:-0.873365 76:-0.8731 77:-0.87309 78:-0.872844 79:-0.872748 80:-0.872908 81:-0.872787 82:-0.872667 83:-0.872452 84:-0.87252 85:-0.872318 86:-0.872253 87:-0.872203 88:-0.872052 89:-0.872008 90:-0.871891 91:-0.871715 92:-0.871654 93:-0.87172 94:-0.871558 95:-0.871506 96:-0.871485 97:-0.871436 98:-0.871277 99:-0.871223 100:-0.871181 101:-0.871132 102:-0.871245 103:-0.871202 104:-0.871407 
-21.45402556457751 0 0 0 0 7.391915846034124 0 87.08809442971628 0 1:-0.886135 2:-0.785156 3:-0.759723 4:-0.867899 5:-0.862053 6:-0.893871 7:-0.881911 8:-0.875665 9:-0.870213 10:-0.869423 11:-0.867956 12:-0.866248 13:-0.866394 14:-0.866236 15:-0.866272 16:-0.866247 17:-0.866955 18:-0.866373 19:-0.870498 20:-0.874748 21:-0.875534 22:-0.875889 23:-0.874819 24:-0.874318 25:-0.873876 26:-0.873589 27:-0.87275 28:-0.872467 29:-0.872271 30:-0.871631 31:-0.871452 32:-0.872432 33:-0.872028 34:-0.872599 35:-0.872028 36:-0.873653 37:-0.874004 38:-0.873434 39:-0.873231 40:-0.872966 41:-0.872783 42:-0.872471 43:-0.872005 44:-0.872141 45:-0.872549 46:-0.874166 47:-0.874417 48:-0.873975 49:-0.873755 50:-0.873586 51:-0.873185 52:-0.873002 53:-0.872859 54:-0.872801 55:-0.872771 56:-0.873181 57:-0.873004 58:-0.873088 59:-0.873466 60:-0.873564 61:-0.873432 62:-0.873113 63:-0.873162 64:-0.873069 65:-0.873099 66:-0.873543 67:-0.873763 68:-0.874457 69:-0.874418 70:-0.874482 71:-0.87434 72:-0.874125 73:-0.873838 74:-0.873742 75:-0.873475 76:-0.873519 77:-0.873249 78:-0.873148 79:-0.873291 80:-0.873085 81:-0.872982 82:-0.872744 83:-0.872665 84:-0.872584 85:-0.872481 86:-0.872407 87:-0.872342 88:-0.872401 89:-0.872211 90:-0.872572 91:-0.87238 92:-0.872174 93:-0.872245 94:-0.872149 95:-0.872089 96:-0.872054 97:-0.872166 98:-0.872056 99:-0.871874 100:-0.871818 101:-0.871757 102:-0.8717 103:-0.871543 104:-0.871728 
-0 0 1.20416322331154 0 0 20.27027345120176 0 0 0 1:-0.8356 2:-0.748698 3:-0.763258 4:-0.86748 5:-0.86877 6:-0.895881 7:-0.887929 8:-0.879264 9:-0.873696 10:-0.871055 11:-0.870036 12:-0.868021 13:-0.869379 14:-0.867715 15:-0.867583 16:-0.867772 17:-0.867635 18:-0.867784 19:-0.867522 20:-0.878131 21:-0.879048 22:-0.878423 23:-0.877443 24:-0.876906 25:-0.876211 26:-0.875481 27:-0.874544 28:-0.873713 29:-0.872989 30:-0.873378 31:-0.873314 32:-0.87264 33:-0.872685 34:-0.872066 35:-0.873369 36:-0.873573 37:-0.873571 38:-0.873102 39:-0.872999 40:-0.872848 41:-0.872337 42:-0.872339 43:-0.871986 44:-0.872576 45:-0.872885 46:-0.872464 47:-0.872515 48:-0.872372 49:-0.872102 50:-0.871963 51:-0.871591 52:-0.871434 53:-0.871317 54:-0.871184 55:-0.871333 56:-0.871027 57:-0.870884 58:-0.870575 59:-0.871279 60:-0.872513 61:-0.872272 62:-0.872126 63:-0.872042 64:-0.872706 65:-0.873283 66:-0.873254 67:-0.873456 68:-0.874023 69:-0.874118 70:-0.873971 71:-0.873892 72:-0.873612 73:-0.873412 74:-0.87339 75:-0.873124 76:-0.873168 77:-0.873011 78:-0.872754 79:-0.872734 80:-0.872922 81:-0.872814 82:-0.872602 83:-0.872521 84:-0.872294 85:-0.872386 86:-0.872225 87:-0.872135 88:-0.872034 89:-0.871844 90:-0.871776 91:-0.87159 92:-0.871668 93:-0.871585 94:-0.871607 95:-0.87155 96:-0.871497 97:-0.87132 98:-0.871476 99:-0.871296 100:-0.871266 101:-0.871183 102:-0.871129 103:-0.870963 104:-0.871167 
-0 0 1.445283931560139 0 0.05289956183246269 0 0.491370357295868 0 0 1:-0.859147 2:-0.721354 3:-0.757922 4:-0.865531 5:-0.864432 6:-0.889224 7:-0.877866 8:-0.872036 9:-0.868687 10:-0.867317 11:-0.866172 12:-0.86554 13:-0.86671 14:-0.865996 15:-0.86518 16:-0.864835 17:-0.865817 18:-0.870411 19:-0.869159 20:-0.872925 21:-0.872559 22:-0.872127 23:-0.871479 24:-0.870666 25:-0.871273 26:-0.872664 27:-0.872156 28:-0.87201 29:-0.871994 30:-0.872927 31:-0.873494 32:-0.873062 33:-0.872782 34:-0.872319 35:-0.871749 36:-0.871549 37:-0.871244 38:-0.870951 39:-0.870679 40:-0.870596 41:-0.871234 42:-0.871206 43:-0.871327 44:-0.87107 45:-0.870857 46:-0.870542 47:-0.870261 48:-0.870169 49:-0.869978 50:-0.869586 51:-0.869413 52:-0.869302 53:-0.869289 54:-0.8695 55:-0.869465 56:-0.869323 57:-0.869211 58:-0.869147 59:-0.869894 60:-0.870537 61:-0.870532 62:-0.87022 63:-0.870166 64:-0.870118 65:-0.870788 66:-0.870902 67:-0.871721 68:-0.872415 69:-0.872122 70:-0.871973 71:-0.871994 72:-0.871869 73:-0.871843 74:-0.871575 75:-0.871496 76:-0.871277 77:-0.871374 78:-0.871294 79:-0.871177 80:-0.871282 81:-0.870992 82:-0.870922 83:-0.870805 84:-0.870629 85:-0.8708 86:-0.870576 87:-0.870534 88:-0.870371 89:-0.870309 90:-0.870207 91:-0.870141 92:-0.870035 93:-0.869946 94:-0.869934 95:-0.869772 96:-0.869786 97:-0.869604 98:-0.86957 99:-0.869509 100:-0.869497 101:-0.869316 102:-0.869281 103:-0.86911 104:-0.86934 
-49.20000280711405 0 26.19077114088717 0 0.03381535779977999 0 0.128206868868453 54.20847339360544 0 1:-0.87248 2:-0.738281 3:-0.746194 4:-0.864929 5:-0.864865 6:-0.881184 7:-0.872022 8:-0.868568 9:-0.864743 10:-0.863874 11:-0.86308 12:-0.862712 13:-0.86259 14:-0.862678 15:-0.863319 16:-0.866433 17:-0.873201 18:-0.871908 19:-0.870474 20:-0.869162 21:-0.870612 22:-0.872598 23:-0.87427 24:-0.87536 25:-0.874817 26:-0.874212 27:-0.873694 28:-0.873246 29:-0.872409 30:-0.872643 31:-0.872293 32:-0.871539 33:-0.871683 34:-0.871184 35:-0.870543 36:-0.87035 37:-0.869772 38:-0.870242 39:-0.870108 40:-0.870387 41:-0.87028 42:-0.871069 43:-0.8709 44:-0.871296 45:-0.870829 46:-0.871204 47:-0.871009 48:-0.870564 49:-0.870393 50:-0.86997 51:-0.870062 52:-0.869661 53:-0.869513 54:-0.869143 55:-0.869051 56:-0.869144 57:-0.868843 58:-0.868613 59:-0.869979 60:-0.870463 61:-0.870323 62:-0.87006 63:-0.870353 64:-0.870535 65:-0.870544 66:-0.871158 67:-0.87121 68:-0.872041 69:-0.872047 70:-0.872013 71:-0.87171 72:-0.87168 73:-0.871581 74:-0.871331 75:-0.871371 76:-0.871235 77:-0.870947 78:-0.870674 79:-0.870789 80:-0.870864 81:-0.870565 82:-0.87046 83:-0.87022 84:-0.870281 85:-0.870198 86:-0.870135 87:-0.870152 88:-0.870118 89:-0.870048 90:-0.86983 91:-0.869881 92:-0.869662 93:-0.869592 94:-0.869622 95:-0.869425 96:-0.869334 97:-0.869269 98:-0.869083 99:-0.869016 100:-0.868953 101:-0.868868 102:-0.868825 103:-0.868784 104:-0.869135 
-0 0 0 0 0 0 0 0 62.41553666534301 1:-0.953228 2:-0.924479 3:-0.942326 4:-0.9696 5:-0.968074 6:-0.979036 7:-0.97734 8:-0.975347 9:-0.974284 10:-0.976759 11:-0.978406 12:-0.980755 13:-0.984193 14:-0.985377 15:-0.983606 16:-0.982528 17:-0.981602 18:-0.980518 19:-0.979484 20:-0.978658 21:-0.978203 22:-0.977822 23:-0.97724 24:-0.976925 25:-0.976423 26:-0.975988 27:-0.975744 28:-0.975533 29:-0.975188 30:-0.974868 31:-0.974739 32:-0.974453 33:-0.974195 34:-0.974097 35:-0.973859 36:-0.973783 37:-0.973562 38:-0.973354 39:-0.973248 40:-0.97307 41:-0.97287 42:-0.972801 43:-0.972736 44:-0.972559 45:-0.972416 46:-0.972284 47:-0.97214 48:-0.972123 49:-0.972004 50:-0.971869 51:-0.971837 52:-0.971702 53:-0.971579 54:-0.971649 55:-0.97156 56:-0.971471 57:-0.971374 58:-0.97143 59:-0.971324 60:-0.971238 61:-0.971304 62:-0.971226 63:-0.971154 64:-0.971086 65:-0.97109 66:-0.971024 67:-0.97096 68:-0.970897 69:-0.970837 70:-0.970916 71:-0.970856 72:-0.970797 73:-0.970827 74:-0.970804 75:-0.970805 76:-0.970735 77:-0.970668 78:-0.970603 79:-0.970538 80:-0.970487 81:-0.970538 82:-0.970479 83:-0.970423 84:-0.970369 85:-0.970324 86:-0.970389 87:-0.970346 88:-0.9703 89:-0.97026 90:-0.97035 91:-0.970541 92:-0.970494 93:-0.970551 94:-0.970509 95:-0.970516 96:-0.970474 97:-0.970531 98:-0.970534 99:-0.970486 100:-0.97044 101:-0.970441 102:-0.970396 103:-0.970352 104:-0.970532 
-0 0 0 0 0 0 0 0 272.0469812879646 1:-0.959787 2:-0.915365 3:-0.922149 4:-0.958187 5:-0.937584 6:-0.951198 7:-0.956665 8:-0.961575 9:-0.969755 10:-0.966956 11:-0.964874 12:-0.964057 13:-0.962978 14:-0.962917 15:-0.962039 16:-0.961343 17:-0.960681 18:-0.960203 19:-0.96038 20:-0.95996 21:-0.959589 22:-0.959685 23:-0.959411 24:-0.959125 25:-0.95887 26:-0.958676 27:-0.958447 28:-0.958251 29:-0.958106 30:-0.958414 31:-0.958265 32:-0.958121 33:-0.958402 34:-0.958259 35:-0.958503 36:-0.95838 37:-0.958249 38:-0.958424 39:-0.958299 40:-0.958144 41:-0.958011 42:-0.957886 43:-0.958063 44:-0.957943 45:-0.957855 46:-0.958039 47:-0.957928 48:-0.957845 49:-0.957765 50:-0.95767 51:-0.957774 52:-0.957669 53:-0.95758 54:-0.957498 55:-0.957671 56:-0.957653 57:-0.957566 58:-0.957488 59:-0.958064 60:-0.957994 61:-0.958074 62:-0.958008 63:-0.95795 64:-0.958087 65:-0.958025 66:-0.958 67:-0.957945 68:-0.957891 69:-0.95784 70:-0.9578 71:-0.95791 72:-0.957858 73:-0.957796 74:-0.957912 75:-0.957907 76:-0.957842 77:-0.957779 78:-0.95772 79:-0.957813 80:-0.957769 81:-0.957701 82:-0.957646 83:-0.957596 84:-0.957546 85:-0.95779 86:-0.957744 87:-0.957943 88:-0.958403 89:-0.958411 90:-0.958463 91:-0.958518 92:-0.958724 93:-0.958822 94:-0.958772 95:-0.958721 96:-0.958673 97:-0.958625 98:-0.958765 99:-0.959083 100:-0.959027 101:-0.959113 102:-0.959144 103:-0.959134 104:-0.959433 
-2.74956420976705 0 1.083567244602513 0 12.91598184317751 18.57917003053076 303.390487690096 53.97965952548611 0 1:-0.954304 2:-0.895833 3:-0.913142 4:-0.957643 5:-0.939141 6:-0.951496 7:-0.955474 8:-0.960065 9:-0.970209 10:-0.967175 11:-0.964927 12:-0.963986 13:-0.962812 14:-0.96221 15:-0.961736 16:-0.960989 17:-0.960283 18:-0.960098 19:-0.959439 20:-0.959021 21:-0.958651 22:-0.958883 23:-0.958604 24:-0.958484 25:-0.958608 26:-0.958384 27:-0.958213 28:-0.957989 29:-0.957818 30:-0.958102 31:-0.95793 32:-0.957766 33:-0.957855 34:-0.9577 35:-0.957559 36:-0.957437 37:-0.957307 38:-0.957523 39:-0.957398 40:-0.957242 41:-0.957417 42:-0.957284 43:-0.957157 44:-0.957038 45:-0.956949 46:-0.956869 47:-0.957031 48:-0.957195 49:-0.95711 50:-0.95701 51:-0.956914 52:-0.957048 53:-0.956998 54:-0.956909 55:-0.95685 56:-0.956788 57:-0.95696 58:-0.956875 59:-0.95679 60:-0.956944 61:-0.95713 62:-0.957143 63:-0.957163 64:-0.957106 65:-0.957045 66:-0.95699 67:-0.957154 68:-0.957098 69:-0.957045 70:-0.956993 71:-0.957112 72:-0.957059 73:-0.956995 74:-0.957042 75:-0.957114 76:-0.957047 77:-0.957045 78:-0.957107 79:-0.957042 80:-0.957564 81:-0.957553 82:-0.957547 83:-0.957544 84:-0.957484 85:-0.957433 86:-0.957381 87:-0.957444 88:-0.957393 89:-0.957924 90:-0.958283 91:-0.958333 92:-0.95868 93:-0.95862 94:-0.958951 95:-0.958888 96:-0.958828 97:-0.958818 98:-0.958755 99:-0.958786 100:-0.958771 101:-0.958754 102:-0.958989 103:-0.959076 104:-0.959192 
-0 2048 0 0 0 0 0 0 0 1:-0.980001 2:-0.949219 3:-0.957559 4:-0.978552 5:-0.965056 6:-0.976363 7:-0.978944 8:-0.977931 9:-0.977456 10:-0.977978 11:-0.980134 12:-0.982002 13:-0.981926 14:-0.981979 15:-0.984299 16:-0.985636 17:-0.984889 18:-0.984282 19:-0.983681 20:-0.983509 21:-0.983083 22:-0.982723 23:-0.982403 24:-0.982098 25:-0.981824 26:-0.981591 27:-0.981838 28:-0.981672 29:-0.981475 30:-0.981291 31:-0.981119 32:-0.980957 33:-0.980814 34:-0.980671 35:-0.980539 36:-0.980416 37:-0.980293 38:-0.980176 39:-0.980067 40:-0.979936 41:-0.980128 42:-0.980172 43:-0.980051 44:-0.979937 45:-0.979852 46:-0.979777 47:-0.979692 48:-0.979623 49:-0.979556 50:-0.97947 51:-0.979387 52:-0.979541 53:-0.979458 54:-0.979383 55:-0.979334 56:-0.979284 57:-0.979219 58:-0.979352 59:-0.979363 60:-0.979309 61:-0.979244 62:-0.979198 63:-0.979158 64:-0.979119 65:-0.979078 66:-0.979041 67:-0.979004 68:-0.979149 69:-0.979112 70:-0.979076 71:-0.979041 72:-0.979038 73:-0.978993 74:-0.978959 75:-0.97892 76:-0.978879 77:-0.978988 78:-0.978943 79:-0.978899 80:-0.978864 81:-0.978817 82:-0.978778 83:-0.978884 84:-0.978846 85:-0.978817 86:-0.978788 87:-0.978761 88:-0.978732 89:-0.978707 90:-0.978889 91:-0.978862 92:-0.978884 93:-0.97896 94:-0.978983 95:-0.978955 96:-0.978928 97:-0.978901 98:-0.978919 99:-0.978886 100:-0.978854 101:-0.978822 102:-0.978791 103:-0.978811 104:-0.97926 
-0 57.92224495871509 0 0 0 0 0 0 0 1:-0.978711 2:-0.955729 3:-0.958297 4:-0.978391 5:-0.962721 6:-0.975096 7:-0.978024 8:-0.977198 9:-0.977787 10:-0.979419 11:-0.978783 12:-0.982112 13:-0.982004 14:-0.982278 15:-0.983866 16:-0.985633 17:-0.984873 18:-0.984256 19:-0.983645 20:-0.983174 21:-0.982758 22:-0.982909 23:-0.98257 24:-0.982249 25:-0.981959 26:-0.981713 27:-0.981441 28:-0.981204 29:-0.981019 30:-0.980847 31:-0.980686 32:-0.980664 33:-0.980798 34:-0.980716 35:-0.980578 36:-0.980448 37:-0.980319 38:-0.980197 39:-0.980082 40:-0.979947 41:-0.980134 42:-0.980007 43:-0.979887 44:-0.979773 45:-0.979688 46:-0.979613 47:-0.979528 48:-0.979458 49:-0.979391 50:-0.979306 51:-0.979223 52:-0.979376 53:-0.979294 54:-0.979219 55:-0.97917 56:-0.979283 57:-0.979215 58:-0.979144 59:-0.979073 60:-0.979021 61:-0.978959 62:-0.978915 63:-0.978877 64:-0.97884 65:-0.978801 66:-0.978765 67:-0.978913 68:-0.978877 69:-0.978842 70:-0.978808 71:-0.978774 72:-0.978741 73:-0.978697 74:-0.978885 75:-0.978845 76:-0.978798 77:-0.978753 78:-0.978709 79:-0.978666 80:-0.978632 81:-0.978586 82:-0.978548 83:-0.978567 84:-0.97862 85:-0.978592 86:-0.978563 87:-0.978537 88:-0.978643 89:-0.978617 90:-0.978729 91:-0.978768 92:-0.978738 93:-0.978761 94:-0.978785 95:-0.978758 96:-0.978781 97:-0.978754 98:-0.978723 99:-0.97869 100:-0.978659 101:-0.978627 102:-0.978597 103:-0.978613 104:-0.979066 
-0 854.9023256996259 0 0 0 0 0 0 0 1:-0.977098 2:-0.946615 3:-0.955719 4:-0.978082 5:-0.962843 6:-0.977 7:-0.979178 8:-0.977957 9:-0.977356 10:-0.977797 11:-0.979738 12:-0.981657 13:-0.982073 14:-0.981367 15:-0.98404 16:-0.983325 17:-0.982708 18:-0.982548 19:-0.982018 20:-0.981623 21:-0.981274 22:-0.980985 23:-0.980728 24:-0.980478 25:-0.980474 26:-0.980278 27:-0.980052 28:-0.979856 29:-0.97971 30:-0.980019 31:-0.979955 32:-0.979815 33:-0.979691 34:-0.979567 35:-0.979452 36:-0.979346 37:-0.979238 38:-0.979135 39:-0.979039 40:-0.979242 41:-0.979125 42:-0.979015 43:-0.978909 44:-0.97881 45:-0.978739 46:-0.978677 47:-0.978604 48:-0.978673 49:-0.978839 50:-0.978756 51:-0.978676 52:-0.978592 53:-0.978518 54:-0.97845 55:-0.978408 56:-0.978366 57:-0.978306 58:-0.978244 59:-0.978183 60:-0.97838 61:-0.978322 62:-0.978282 63:-0.978247 64:-0.978214 65:-0.978328 66:-0.978294 67:-0.978261 68:-0.978228 69:-0.978197 70:-0.978166 71:-0.978136 72:-0.978106 73:-0.978066 74:-0.978037 75:-0.978165 76:-0.978122 77:-0.97808 78:-0.978128 79:-0.97846 80:-0.978463 81:-0.978413 82:-0.97843 83:-0.97853 84:-0.978495 85:-0.978463 86:-0.978479 87:-0.97848 88:-0.978448 89:-0.978473 90:-0.978548 91:-0.978571 92:-0.978538 93:-0.978508 94:-0.97848 95:-0.978451 96:-0.978423 97:-0.978494 98:-0.978461 99:-0.978427 100:-0.978442 101:-0.978455 102:-0.978422 103:-0.97839 104:-0.978838 
-0 182.1723468978225 0 0 0 0 0 0 0 1:-0.969141 2:-0.919271 3:-0.935669 4:-0.972868 5:-0.956453 6:-0.968426 7:-0.971202 8:-0.970376 9:-0.973818 10:-0.977757 11:-0.978262 12:-0.977737 13:-0.978425 14:-0.979251 15:-0.979515 16:-0.978665 17:-0.977921 18:-0.977663 19:-0.977024 20:-0.976554 21:-0.976139 22:-0.976312 23:-0.975979 24:-0.975657 25:-0.975368 26:-0.975127 27:-0.974859 28:-0.974626 29:-0.974446 30:-0.974724 31:-0.974548 32:-0.974594 33:-0.974471 34:-0.974316 35:-0.974174 36:-0.974043 37:-0.973911 38:-0.973785 39:-0.973667 40:-0.973526 41:-0.973399 42:-0.973279 43:-0.973165 44:-0.973057 45:-0.97326 46:-0.973183 47:-0.973092 48:-0.973021 49:-0.973208 50:-0.973116 51:-0.973272 52:-0.973173 53:-0.973106 54:-0.973025 55:-0.972971 56:-0.972915 57:-0.972842 58:-0.972768 59:-0.972695 60:-0.972641 61:-0.972818 62:-0.972767 63:-0.972723 64:-0.972793 65:-0.972953 66:-0.973033 67:-0.973132 68:-0.973084 69:-0.973038 70:-0.972994 71:-0.972957 72:-0.973036 73:-0.972981 74:-0.972938 75:-0.97327 76:-0.973568 77:-0.973505 78:-0.973444 79:-0.973383 80:-0.973417 81:-0.973391 82:-0.973394 83:-0.973552 84:-0.97379 85:-0.973741 86:-0.973747 87:-0.974021 88:-0.974078 89:-0.974292 90:-0.974238 91:-0.974189 92:-0.974136 93:-0.974139 94:-0.974091 95:-0.974043 96:-0.973997 97:-0.97405 98:-0.974048 99:-0.973997 100:-0.973994 101:-0.97399 102:-0.973987 103:-0.973938 104:-0.974155 
